digraph Tree {
node [shape=box] ;
0 [label="X[8] <= -0.053\ngini = 0.497\nsamples = 16178\nvalue = [7463, 8715]"] ;
1 [label="X[6] <= 0.014\ngini = 0.474\nsamples = 756\nvalue = [291, 465]"] ;
0 -> 1 [labeldistance=2.5, labelangle=45, headlabel="True"] ;
2 [label="X[5] <= 0.004\ngini = 0.49\nsamples = 512\nvalue = [220, 292]"] ;
1 -> 2 ;
3 [label="X[0] <= -0.03\ngini = 0.461\nsamples = 269\nvalue = [97, 172]"] ;
2 -> 3 ;
4 [label="X[13] <= 0.019\ngini = 0.493\nsamples = 41\nvalue = [23, 18]"] ;
3 -> 4 ;
5 [label="X[13] <= -0.018\ngini = 0.365\nsamples = 25\nvalue = [19, 6]"] ;
4 -> 5 ;
6 [label="X[13] <= -0.047\ngini = 0.494\nsamples = 9\nvalue = [4, 5]"] ;
5 -> 6 ;
7 [label="gini = 0.0\nsamples = 3\nvalue = [3, 0]"] ;
6 -> 7 ;
8 [label="X[16] <= 0.011\ngini = 0.278\nsamples = 6\nvalue = [1, 5]"] ;
6 -> 8 ;
9 [label="gini = 0.0\nsamples = 5\nvalue = [0, 5]"] ;
8 -> 9 ;
10 [label="gini = 0.0\nsamples = 1\nvalue = [1, 0]"] ;
8 -> 10 ;
11 [label="X[5] <= -0.001\ngini = 0.117\nsamples = 16\nvalue = [15, 1]"] ;
5 -> 11 ;
12 [label="gini = 0.0\nsamples = 15\nvalue = [15, 0]"] ;
11 -> 12 ;
13 [label="gini = 0.0\nsamples = 1\nvalue = [0, 1]"] ;
11 -> 13 ;
14 [label="X[16] <= 0.056\ngini = 0.375\nsamples = 16\nvalue = [4, 12]"] ;
4 -> 14 ;
15 [label="X[5] <= -0.081\ngini = 0.245\nsamples = 14\nvalue = [2, 12]"] ;
14 -> 15 ;
16 [label="gini = 0.0\nsamples = 1\nvalue = [1, 0]"] ;
15 -> 16 ;
17 [label="X[5] <= -0.002\ngini = 0.142\nsamples = 13\nvalue = [1, 12]"] ;
15 -> 17 ;
18 [label="gini = 0.0\nsamples = 11\nvalue = [0, 11]"] ;
17 -> 18 ;
19 [label="X[12] <= -0.015\ngini = 0.5\nsamples = 2\nvalue = [1, 1]"] ;
17 -> 19 ;
20 [label="gini = 0.0\nsamples = 1\nvalue = [0, 1]"] ;
19 -> 20 ;
21 [label="gini = 0.0\nsamples = 1\nvalue = [1, 0]"] ;
19 -> 21 ;
22 [label="gini = 0.0\nsamples = 2\nvalue = [2, 0]"] ;
14 -> 22 ;
23 [label="X[14] <= 0.031\ngini = 0.438\nsamples = 228\nvalue = [74, 154]"] ;
3 -> 23 ;
24 [label="X[11] <= -0.041\ngini = 0.462\nsamples = 191\nvalue = [69, 122]"] ;
23 -> 24 ;
25 [label="X[11] <= -0.103\ngini = 0.165\nsamples = 22\nvalue = [2, 20]"] ;
24 -> 25 ;
26 [label="X[7] <= -0.022\ngini = 0.444\nsamples = 3\nvalue = [2, 1]"] ;
25 -> 26 ;
27 [label="gini = 0.0\nsamples = 1\nvalue = [0, 1]"] ;
26 -> 27 ;
28 [label="gini = 0.0\nsamples = 2\nvalue = [2, 0]"] ;
26 -> 28 ;
29 [label="gini = 0.0\nsamples = 19\nvalue = [0, 19]"] ;
25 -> 29 ;
30 [label="X[3] <= 0.054\ngini = 0.479\nsamples = 169\nvalue = [67, 102]"] ;
24 -> 30 ;
31 [label="X[8] <= -0.056\ngini = 0.465\nsamples = 155\nvalue = [57, 98]"] ;
30 -> 31 ;
32 [label="X[8] <= -0.061\ngini = 0.479\nsamples = 141\nvalue = [56, 85]"] ;
31 -> 32 ;
33 [label="X[12] <= -0.003\ngini = 0.432\nsamples = 111\nvalue = [35, 76]"] ;
32 -> 33 ;
34 [label="X[11] <= -0.037\ngini = 0.283\nsamples = 41\nvalue = [7, 34]"] ;
33 -> 34 ;
35 [label="gini = 0.0\nsamples = 2\nvalue = [2, 0]"] ;
34 -> 35 ;
36 [label="X[14] <= 0.013\ngini = 0.224\nsamples = 39\nvalue = [5, 34]"] ;
34 -> 36 ;
37 [label="X[8] <= -0.152\ngini = 0.067\nsamples = 29\nvalue = [1, 28]"] ;
36 -> 37 ;
38 [label="gini = 0.0\nsamples = 1\nvalue = [1, 0]"] ;
37 -> 38 ;
39 [label="gini = 0.0\nsamples = 28\nvalue = [0, 28]"] ;
37 -> 39 ;
40 [label="X[5] <= -0.036\ngini = 0.48\nsamples = 10\nvalue = [4, 6]"] ;
36 -> 40 ;
41 [label="gini = 0.0\nsamples = 5\nvalue = [0, 5]"] ;
40 -> 41 ;
42 [label="X[15] <= 0.008\ngini = 0.32\nsamples = 5\nvalue = [4, 1]"] ;
40 -> 42 ;
43 [label="gini = 0.0\nsamples = 4\nvalue = [4, 0]"] ;
42 -> 43 ;
44 [label="gini = 0.0\nsamples = 1\nvalue = [0, 1]"] ;
42 -> 44 ;
45 [label="X[12] <= -0.001\ngini = 0.48\nsamples = 70\nvalue = [28, 42]"] ;
33 -> 45 ;
46 [label="gini = 0.0\nsamples = 5\nvalue = [5, 0]"] ;
45 -> 46 ;
47 [label="X[1] <= 0.013\ngini = 0.457\nsamples = 65\nvalue = [23, 42]"] ;
45 -> 47 ;
48 [label="X[1] <= -0.019\ngini = 0.343\nsamples = 41\nvalue = [9, 32]"] ;
47 -> 48 ;
49 [label="X[1] <= -0.05\ngini = 0.5\nsamples = 14\nvalue = [7, 7]"] ;
48 -> 49 ;
50 [label="gini = 0.0\nsamples = 5\nvalue = [0, 5]"] ;
49 -> 50 ;
51 [label="X[11] <= 0.054\ngini = 0.346\nsamples = 9\nvalue = [7, 2]"] ;
49 -> 51 ;
52 [label="gini = 0.0\nsamples = 7\nvalue = [7, 0]"] ;
51 -> 52 ;
53 [label="gini = 0.0\nsamples = 2\nvalue = [0, 2]"] ;
51 -> 53 ;
54 [label="X[6] <= 0.001\ngini = 0.137\nsamples = 27\nvalue = [2, 25]"] ;
48 -> 54 ;
55 [label="gini = 0.0\nsamples = 22\nvalue = [0, 22]"] ;
54 -> 55 ;
56 [label="X[9] <= 0.01\ngini = 0.48\nsamples = 5\nvalue = [2, 3]"] ;
54 -> 56 ;
57 [label="gini = 0.0\nsamples = 2\nvalue = [2, 0]"] ;
56 -> 57 ;
58 [label="gini = 0.0\nsamples = 3\nvalue = [0, 3]"] ;
56 -> 58 ;
59 [label="X[3] <= -0.018\ngini = 0.486\nsamples = 24\nvalue = [14, 10]"] ;
47 -> 59 ;
60 [label="gini = 0.0\nsamples = 7\nvalue = [0, 7]"] ;
59 -> 60 ;
61 [label="X[7] <= -0.012\ngini = 0.291\nsamples = 17\nvalue = [14, 3]"] ;
59 -> 61 ;
62 [label="X[11] <= 0.011\ngini = 0.49\nsamples = 7\nvalue = [4, 3]"] ;
61 -> 62 ;
63 [label="X[12] <= 0.003\ngini = 0.375\nsamples = 4\nvalue = [1, 3]"] ;
62 -> 63 ;
64 [label="gini = 0.0\nsamples = 1\nvalue = [1, 0]"] ;
63 -> 64 ;
65 [label="gini = 0.0\nsamples = 3\nvalue = [0, 3]"] ;
63 -> 65 ;
66 [label="gini = 0.0\nsamples = 3\nvalue = [3, 0]"] ;
62 -> 66 ;
67 [label="gini = 0.0\nsamples = 10\nvalue = [10, 0]"] ;
61 -> 67 ;
68 [label="X[3] <= -0.018\ngini = 0.42\nsamples = 30\nvalue = [21, 9]"] ;
32 -> 68 ;
69 [label="X[2] <= -0.053\ngini = 0.133\nsamples = 14\nvalue = [13, 1]"] ;
68 -> 69 ;
70 [label="gini = 0.0\nsamples = 1\nvalue = [0, 1]"] ;
69 -> 70 ;
71 [label="gini = 0.0\nsamples = 13\nvalue = [13, 0]"] ;
69 -> 71 ;
72 [label="X[3] <= -0.007\ngini = 0.5\nsamples = 16\nvalue = [8, 8]"] ;
68 -> 72 ;
73 [label="gini = 0.0\nsamples = 6\nvalue = [0, 6]"] ;
72 -> 73 ;
74 [label="X[10] <= -0.014\ngini = 0.32\nsamples = 10\nvalue = [8, 2]"] ;
72 -> 74 ;
75 [label="X[5] <= -0.008\ngini = 0.444\nsamples = 3\nvalue = [1, 2]"] ;
74 -> 75 ;
76 [label="gini = 0.0\nsamples = 2\nvalue = [0, 2]"] ;
75 -> 76 ;
77 [label="gini = 0.0\nsamples = 1\nvalue = [1, 0]"] ;
75 -> 77 ;
78 [label="gini = 0.0\nsamples = 7\nvalue = [7, 0]"] ;
74 -> 78 ;
79 [label="X[15] <= -0.025\ngini = 0.133\nsamples = 14\nvalue = [1, 13]"] ;
31 -> 79 ;
80 [label="gini = 0.0\nsamples = 1\nvalue = [1, 0]"] ;
79 -> 80 ;
81 [label="gini = 0.0\nsamples = 13\nvalue = [0, 13]"] ;
79 -> 81 ;
82 [label="X[0] <= 0.053\ngini = 0.408\nsamples = 14\nvalue = [10, 4]"] ;
30 -> 82 ;
83 [label="X[10] <= -0.033\ngini = 0.165\nsamples = 11\nvalue = [10, 1]"] ;
82 -> 83 ;
84 [label="gini = 0.0\nsamples = 1\nvalue = [0, 1]"] ;
83 -> 84 ;
85 [label="gini = 0.0\nsamples = 10\nvalue = [10, 0]"] ;
83 -> 85 ;
86 [label="gini = 0.0\nsamples = 3\nvalue = [0, 3]"] ;
82 -> 86 ;
87 [label="X[3] <= -0.035\ngini = 0.234\nsamples = 37\nvalue = [5, 32]"] ;
23 -> 87 ;
88 [label="X[13] <= 0.001\ngini = 0.375\nsamples = 4\nvalue = [3, 1]"] ;
87 -> 88 ;
89 [label="gini = 0.0\nsamples = 3\nvalue = [3, 0]"] ;
88 -> 89 ;
90 [label="gini = 0.0\nsamples = 1\nvalue = [0, 1]"] ;
88 -> 90 ;
91 [label="X[4] <= -0.064\ngini = 0.114\nsamples = 33\nvalue = [2, 31]"] ;
87 -> 91 ;
92 [label="gini = 0.0\nsamples = 1\nvalue = [1, 0]"] ;
91 -> 92 ;
93 [label="X[15] <= -0.041\ngini = 0.061\nsamples = 32\nvalue = [1, 31]"] ;
91 -> 93 ;
94 [label="X[17] <= -0.008\ngini = 0.444\nsamples = 3\nvalue = [1, 2]"] ;
93 -> 94 ;
95 [label="gini = 0.0\nsamples = 1\nvalue = [1, 0]"] ;
94 -> 95 ;
96 [label="gini = 0.0\nsamples = 2\nvalue = [0, 2]"] ;
94 -> 96 ;
97 [label="gini = 0.0\nsamples = 29\nvalue = [0, 29]"] ;
93 -> 97 ;
98 [label="X[7] <= 0.015\ngini = 0.5\nsamples = 243\nvalue = [123, 120]"] ;
2 -> 98 ;
99 [label="X[10] <= -0.003\ngini = 0.49\nsamples = 156\nvalue = [67, 89]"] ;
98 -> 99 ;
100 [label="X[10] <= -0.019\ngini = 0.492\nsamples = 64\nvalue = [36, 28]"] ;
99 -> 100 ;
101 [label="X[2] <= -0.008\ngini = 0.48\nsamples = 35\nvalue = [14, 21]"] ;
100 -> 101 ;
102 [label="X[1] <= -0.039\ngini = 0.219\nsamples = 16\nvalue = [2, 14]"] ;
101 -> 102 ;
103 [label="X[7] <= -0.078\ngini = 0.444\nsamples = 3\nvalue = [2, 1]"] ;
102 -> 103 ;
104 [label="gini = 0.0\nsamples = 1\nvalue = [0, 1]"] ;
103 -> 104 ;
105 [label="gini = 0.0\nsamples = 2\nvalue = [2, 0]"] ;
103 -> 105 ;
106 [label="gini = 0.0\nsamples = 13\nvalue = [0, 13]"] ;
102 -> 106 ;
107 [label="X[0] <= 0.011\ngini = 0.465\nsamples = 19\nvalue = [12, 7]"] ;
101 -> 107 ;
108 [label="X[8] <= -0.095\ngini = 0.463\nsamples = 11\nvalue = [4, 7]"] ;
107 -> 108 ;
109 [label="gini = 0.0\nsamples = 3\nvalue = [3, 0]"] ;
108 -> 109 ;
110 [label="X[13] <= -0.091\ngini = 0.219\nsamples = 8\nvalue = [1, 7]"] ;
108 -> 110 ;
111 [label="gini = 0.0\nsamples = 1\nvalue = [1, 0]"] ;
110 -> 111 ;
112 [label="gini = 0.0\nsamples = 7\nvalue = [0, 7]"] ;
110 -> 112 ;
113 [label="gini = 0.0\nsamples = 8\nvalue = [8, 0]"] ;
107 -> 113 ;
114 [label="X[11] <= -0.008\ngini = 0.366\nsamples = 29\nvalue = [22, 7]"] ;
100 -> 114 ;
115 [label="X[10] <= -0.014\ngini = 0.5\nsamples = 12\nvalue = [6, 6]"] ;
114 -> 115 ;
116 [label="gini = 0.0\nsamples = 4\nvalue = [4, 0]"] ;
115 -> 116 ;
117 [label="X[7] <= 0.008\ngini = 0.375\nsamples = 8\nvalue = [2, 6]"] ;
115 -> 117 ;
118 [label="gini = 0.0\nsamples = 6\nvalue = [0, 6]"] ;
117 -> 118 ;
119 [label="gini = 0.0\nsamples = 2\nvalue = [2, 0]"] ;
117 -> 119 ;
120 [label="X[9] <= -0.043\ngini = 0.111\nsamples = 17\nvalue = [16, 1]"] ;
114 -> 120 ;
121 [label="gini = 0.0\nsamples = 1\nvalue = [0, 1]"] ;
120 -> 121 ;
122 [label="gini = 0.0\nsamples = 16\nvalue = [16, 0]"] ;
120 -> 122 ;
123 [label="X[17] <= 0.008\ngini = 0.447\nsamples = 92\nvalue = [31, 61]"] ;
99 -> 123 ;
124 [label="X[15] <= -0.006\ngini = 0.355\nsamples = 52\nvalue = [12, 40]"] ;
123 -> 124 ;
125 [label="X[0] <= -0.021\ngini = 0.5\nsamples = 20\nvalue = [10, 10]"] ;
124 -> 125 ;
126 [label="gini = 0.0\nsamples = 5\nvalue = [5, 0]"] ;
125 -> 126 ;
127 [label="X[15] <= -0.014\ngini = 0.444\nsamples = 15\nvalue = [5, 10]"] ;
125 -> 127 ;
128 [label="X[5] <= 0.083\ngini = 0.18\nsamples = 10\nvalue = [1, 9]"] ;
127 -> 128 ;
129 [label="gini = 0.0\nsamples = 9\nvalue = [0, 9]"] ;
128 -> 129 ;
130 [label="gini = 0.0\nsamples = 1\nvalue = [1, 0]"] ;
128 -> 130 ;
131 [label="X[5] <= 0.032\ngini = 0.32\nsamples = 5\nvalue = [4, 1]"] ;
127 -> 131 ;
132 [label="gini = 0.0\nsamples = 4\nvalue = [4, 0]"] ;
131 -> 132 ;
133 [label="gini = 0.0\nsamples = 1\nvalue = [0, 1]"] ;
131 -> 133 ;
134 [label="X[1] <= -0.099\ngini = 0.117\nsamples = 32\nvalue = [2, 30]"] ;
124 -> 134 ;
135 [label="X[3] <= -0.021\ngini = 0.5\nsamples = 2\nvalue = [1, 1]"] ;
134 -> 135 ;
136 [label="gini = 0.0\nsamples = 1\nvalue = [0, 1]"] ;
135 -> 136 ;
137 [label="gini = 0.0\nsamples = 1\nvalue = [1, 0]"] ;
135 -> 137 ;
138 [label="X[8] <= -0.061\ngini = 0.064\nsamples = 30\nvalue = [1, 29]"] ;
134 -> 138 ;
139 [label="gini = 0.0\nsamples = 27\nvalue = [0, 27]"] ;
138 -> 139 ;
140 [label="X[16] <= -0.006\ngini = 0.444\nsamples = 3\nvalue = [1, 2]"] ;
138 -> 140 ;
141 [label="gini = 0.0\nsamples = 1\nvalue = [1, 0]"] ;
140 -> 141 ;
142 [label="gini = 0.0\nsamples = 2\nvalue = [0, 2]"] ;
140 -> 142 ;
143 [label="X[2] <= -0.012\ngini = 0.499\nsamples = 40\nvalue = [19, 21]"] ;
123 -> 143 ;
144 [label="X[3] <= 0.05\ngini = 0.18\nsamples = 10\nvalue = [9, 1]"] ;
143 -> 144 ;
145 [label="gini = 0.0\nsamples = 9\nvalue = [9, 0]"] ;
144 -> 145 ;
146 [label="gini = 0.0\nsamples = 1\nvalue = [0, 1]"] ;
144 -> 146 ;
147 [label="X[14] <= 0.007\ngini = 0.444\nsamples = 30\nvalue = [10, 20]"] ;
143 -> 147 ;
148 [label="X[1] <= -0.07\ngini = 0.499\nsamples = 19\nvalue = [9, 10]"] ;
147 -> 148 ;
149 [label="gini = 0.0\nsamples = 3\nvalue = [3, 0]"] ;
148 -> 149 ;
150 [label="X[14] <= -0.031\ngini = 0.469\nsamples = 16\nvalue = [6, 10]"] ;
148 -> 150 ;
151 [label="gini = 0.0\nsamples = 6\nvalue = [0, 6]"] ;
150 -> 151 ;
152 [label="X[1] <= -0.031\ngini = 0.48\nsamples = 10\nvalue = [6, 4]"] ;
150 -> 152 ;
153 [label="gini = 0.0\nsamples = 2\nvalue = [0, 2]"] ;
152 -> 153 ;
154 [label="X[4] <= -0.0\ngini = 0.375\nsamples = 8\nvalue = [6, 2]"] ;
152 -> 154 ;
155 [label="X[7] <= -0.018\ngini = 0.444\nsamples = 3\nvalue = [1, 2]"] ;
154 -> 155 ;
156 [label="gini = 0.0\nsamples = 1\nvalue = [1, 0]"] ;
155 -> 156 ;
157 [label="gini = 0.0\nsamples = 2\nvalue = [0, 2]"] ;
155 -> 157 ;
158 [label="gini = 0.0\nsamples = 5\nvalue = [5, 0]"] ;
154 -> 158 ;
159 [label="X[2] <= 0.046\ngini = 0.165\nsamples = 11\nvalue = [1, 10]"] ;
147 -> 159 ;
160 [label="gini = 0.0\nsamples = 10\nvalue = [0, 10]"] ;
159 -> 160 ;
161 [label="gini = 0.0\nsamples = 1\nvalue = [1, 0]"] ;
159 -> 161 ;
162 [label="X[2] <= 0.007\ngini = 0.459\nsamples = 87\nvalue = [56, 31]"] ;
98 -> 162 ;
163 [label="X[3] <= -0.046\ngini = 0.495\nsamples = 58\nvalue = [32, 26]"] ;
162 -> 163 ;
164 [label="gini = 0.0\nsamples = 8\nvalue = [8, 0]"] ;
163 -> 164 ;
165 [label="X[4] <= -0.018\ngini = 0.499\nsamples = 50\nvalue = [24, 26]"] ;
163 -> 165 ;
166 [label="X[4] <= -0.139\ngini = 0.26\nsamples = 13\nvalue = [2, 11]"] ;
165 -> 166 ;
167 [label="gini = 0.0\nsamples = 1\nvalue = [1, 0]"] ;
166 -> 167 ;
168 [label="X[0] <= -0.024\ngini = 0.153\nsamples = 12\nvalue = [1, 11]"] ;
166 -> 168 ;
169 [label="gini = 0.0\nsamples = 1\nvalue = [1, 0]"] ;
168 -> 169 ;
170 [label="gini = 0.0\nsamples = 11\nvalue = [0, 11]"] ;
168 -> 170 ;
171 [label="X[14] <= -0.004\ngini = 0.482\nsamples = 37\nvalue = [22, 15]"] ;
165 -> 171 ;
172 [label="X[11] <= 0.029\ngini = 0.231\nsamples = 15\nvalue = [13, 2]"] ;
171 -> 172 ;
173 [label="gini = 0.0\nsamples = 12\nvalue = [12, 0]"] ;
172 -> 173 ;
174 [label="X[12] <= 0.003\ngini = 0.444\nsamples = 3\nvalue = [1, 2]"] ;
172 -> 174 ;
175 [label="gini = 0.0\nsamples = 1\nvalue = [1, 0]"] ;
174 -> 175 ;
176 [label="gini = 0.0\nsamples = 2\nvalue = [0, 2]"] ;
174 -> 176 ;
177 [label="X[13] <= 0.021\ngini = 0.483\nsamples = 22\nvalue = [9, 13]"] ;
171 -> 177 ;
178 [label="X[10] <= -0.045\ngini = 0.401\nsamples = 18\nvalue = [5, 13]"] ;
177 -> 178 ;
179 [label="gini = 0.0\nsamples = 2\nvalue = [2, 0]"] ;
178 -> 179 ;
180 [label="X[5] <= 0.055\ngini = 0.305\nsamples = 16\nvalue = [3, 13]"] ;
178 -> 180 ;
181 [label="gini = 0.0\nsamples = 11\nvalue = [0, 11]"] ;
180 -> 181 ;
182 [label="X[3] <= -0.006\ngini = 0.48\nsamples = 5\nvalue = [3, 2]"] ;
180 -> 182 ;
183 [label="gini = 0.0\nsamples = 2\nvalue = [0, 2]"] ;
182 -> 183 ;
184 [label="gini = 0.0\nsamples = 3\nvalue = [3, 0]"] ;
182 -> 184 ;
185 [label="gini = 0.0\nsamples = 4\nvalue = [4, 0]"] ;
177 -> 185 ;
186 [label="X[8] <= -0.077\ngini = 0.285\nsamples = 29\nvalue = [24, 5]"] ;
162 -> 186 ;
187 [label="X[9] <= -0.015\ngini = 0.5\nsamples = 8\nvalue = [4, 4]"] ;
186 -> 187 ;
188 [label="gini = 0.0\nsamples = 4\nvalue = [0, 4]"] ;
187 -> 188 ;
189 [label="gini = 0.0\nsamples = 4\nvalue = [4, 0]"] ;
187 -> 189 ;
190 [label="X[8] <= -0.056\ngini = 0.091\nsamples = 21\nvalue = [20, 1]"] ;
186 -> 190 ;
191 [label="gini = 0.0\nsamples = 20\nvalue = [20, 0]"] ;
190 -> 191 ;
192 [label="gini = 0.0\nsamples = 1\nvalue = [0, 1]"] ;
190 -> 192 ;
193 [label="X[14] <= -0.007\ngini = 0.413\nsamples = 244\nvalue = [71, 173]"] ;
1 -> 193 ;
194 [label="X[0] <= -0.012\ngini = 0.298\nsamples = 99\nvalue = [18, 81]"] ;
193 -> 194 ;
195 [label="X[0] <= -0.019\ngini = 0.464\nsamples = 30\nvalue = [11, 19]"] ;
194 -> 195 ;
196 [label="X[4] <= -0.026\ngini = 0.34\nsamples = 23\nvalue = [5, 18]"] ;
195 -> 196 ;
197 [label="X[16] <= 0.025\ngini = 0.444\nsamples = 6\nvalue = [4, 2]"] ;
196 -> 197 ;
198 [label="gini = 0.0\nsamples = 4\nvalue = [4, 0]"] ;
197 -> 198 ;
199 [label="gini = 0.0\nsamples = 2\nvalue = [0, 2]"] ;
197 -> 199 ;
200 [label="X[5] <= -0.045\ngini = 0.111\nsamples = 17\nvalue = [1, 16]"] ;
196 -> 200 ;
201 [label="gini = 0.0\nsamples = 1\nvalue = [1, 0]"] ;
200 -> 201 ;
202 [label="gini = 0.0\nsamples = 16\nvalue = [0, 16]"] ;
200 -> 202 ;
203 [label="X[12] <= 0.024\ngini = 0.245\nsamples = 7\nvalue = [6, 1]"] ;
195 -> 203 ;
204 [label="gini = 0.0\nsamples = 6\nvalue = [6, 0]"] ;
203 -> 204 ;
205 [label="gini = 0.0\nsamples = 1\nvalue = [0, 1]"] ;
203 -> 205 ;
206 [label="X[7] <= 0.065\ngini = 0.182\nsamples = 69\nvalue = [7, 62]"] ;
194 -> 206 ;
207 [label="X[3] <= -0.115\ngini = 0.116\nsamples = 65\nvalue = [4, 61]"] ;
206 -> 207 ;
208 [label="gini = 0.0\nsamples = 1\nvalue = [1, 0]"] ;
207 -> 208 ;
209 [label="X[9] <= 0.022\ngini = 0.089\nsamples = 64\nvalue = [3, 61]"] ;
207 -> 209 ;
210 [label="gini = 0.0\nsamples = 43\nvalue = [0, 43]"] ;
209 -> 210 ;
211 [label="X[9] <= 0.023\ngini = 0.245\nsamples = 21\nvalue = [3, 18]"] ;
209 -> 211 ;
212 [label="gini = 0.0\nsamples = 1\nvalue = [1, 0]"] ;
211 -> 212 ;
213 [label="X[17] <= 0.046\ngini = 0.18\nsamples = 20\nvalue = [2, 18]"] ;
211 -> 213 ;
214 [label="X[16] <= -0.026\ngini = 0.1\nsamples = 19\nvalue = [1, 18]"] ;
213 -> 214 ;
215 [label="X[4] <= 0.017\ngini = 0.444\nsamples = 3\nvalue = [1, 2]"] ;
214 -> 215 ;
216 [label="gini = 0.0\nsamples = 2\nvalue = [0, 2]"] ;
215 -> 216 ;
217 [label="gini = 0.0\nsamples = 1\nvalue = [1, 0]"] ;
215 -> 217 ;
218 [label="gini = 0.0\nsamples = 16\nvalue = [0, 16]"] ;
214 -> 218 ;
219 [label="gini = 0.0\nsamples = 1\nvalue = [1, 0]"] ;
213 -> 219 ;
220 [label="X[1] <= 0.008\ngini = 0.375\nsamples = 4\nvalue = [3, 1]"] ;
206 -> 220 ;
221 [label="gini = 0.0\nsamples = 3\nvalue = [3, 0]"] ;
220 -> 221 ;
222 [label="gini = 0.0\nsamples = 1\nvalue = [0, 1]"] ;
220 -> 222 ;
223 [label="X[7] <= 0.051\ngini = 0.464\nsamples = 145\nvalue = [53, 92]"] ;
193 -> 223 ;
224 [label="X[4] <= 0.026\ngini = 0.441\nsamples = 134\nvalue = [44, 90]"] ;
223 -> 224 ;
225 [label="X[1] <= -0.011\ngini = 0.385\nsamples = 100\nvalue = [26, 74]"] ;
224 -> 225 ;
226 [label="X[4] <= -0.005\ngini = 0.493\nsamples = 34\nvalue = [15, 19]"] ;
225 -> 226 ;
227 [label="X[3] <= -0.001\ngini = 0.455\nsamples = 20\nvalue = [13, 7]"] ;
226 -> 227 ;
228 [label="X[10] <= 0.033\ngini = 0.408\nsamples = 7\nvalue = [2, 5]"] ;
227 -> 228 ;
229 [label="gini = 0.0\nsamples = 5\nvalue = [0, 5]"] ;
228 -> 229 ;
230 [label="gini = 0.0\nsamples = 2\nvalue = [2, 0]"] ;
228 -> 230 ;
231 [label="X[5] <= -0.015\ngini = 0.26\nsamples = 13\nvalue = [11, 2]"] ;
227 -> 231 ;
232 [label="X[16] <= 0.034\ngini = 0.444\nsamples = 3\nvalue = [1, 2]"] ;
231 -> 232 ;
233 [label="gini = 0.0\nsamples = 2\nvalue = [0, 2]"] ;
232 -> 233 ;
234 [label="gini = 0.0\nsamples = 1\nvalue = [1, 0]"] ;
232 -> 234 ;
235 [label="gini = 0.0\nsamples = 10\nvalue = [10, 0]"] ;
231 -> 235 ;
236 [label="X[10] <= 0.031\ngini = 0.245\nsamples = 14\nvalue = [2, 12]"] ;
226 -> 236 ;
237 [label="gini = 0.0\nsamples = 11\nvalue = [0, 11]"] ;
236 -> 237 ;
238 [label="X[2] <= -0.018\ngini = 0.444\nsamples = 3\nvalue = [2, 1]"] ;
236 -> 238 ;
239 [label="gini = 0.0\nsamples = 1\nvalue = [0, 1]"] ;
238 -> 239 ;
240 [label="gini = 0.0\nsamples = 2\nvalue = [2, 0]"] ;
238 -> 240 ;
241 [label="X[0] <= -0.103\ngini = 0.278\nsamples = 66\nvalue = [11, 55]"] ;
225 -> 241 ;
242 [label="gini = 0.0\nsamples = 2\nvalue = [2, 0]"] ;
241 -> 242 ;
243 [label="X[12] <= 0.052\ngini = 0.242\nsamples = 64\nvalue = [9, 55]"] ;
241 -> 243 ;
244 [label="X[16] <= -0.065\ngini = 0.203\nsamples = 61\nvalue = [7, 54]"] ;
243 -> 244 ;
245 [label="gini = 0.0\nsamples = 1\nvalue = [1, 0]"] ;
244 -> 245 ;
246 [label="X[7] <= 0.001\ngini = 0.18\nsamples = 60\nvalue = [6, 54]"] ;
244 -> 246 ;
247 [label="gini = 0.0\nsamples = 32\nvalue = [0, 32]"] ;
246 -> 247 ;
248 [label="X[7] <= 0.003\ngini = 0.337\nsamples = 28\nvalue = [6, 22]"] ;
246 -> 248 ;
249 [label="gini = 0.0\nsamples = 3\nvalue = [3, 0]"] ;
248 -> 249 ;
250 [label="X[1] <= 0.002\ngini = 0.211\nsamples = 25\nvalue = [3, 22]"] ;
248 -> 250 ;
251 [label="X[7] <= 0.005\ngini = 0.48\nsamples = 5\nvalue = [2, 3]"] ;
250 -> 251 ;
252 [label="gini = 0.0\nsamples = 2\nvalue = [2, 0]"] ;
251 -> 252 ;
253 [label="gini = 0.0\nsamples = 3\nvalue = [0, 3]"] ;
251 -> 253 ;
254 [label="X[11] <= 0.045\ngini = 0.095\nsamples = 20\nvalue = [1, 19]"] ;
250 -> 254 ;
255 [label="gini = 0.0\nsamples = 18\nvalue = [0, 18]"] ;
254 -> 255 ;
256 [label="X[11] <= 0.053\ngini = 0.5\nsamples = 2\nvalue = [1, 1]"] ;
254 -> 256 ;
257 [label="gini = 0.0\nsamples = 1\nvalue = [1, 0]"] ;
256 -> 257 ;
258 [label="gini = 0.0\nsamples = 1\nvalue = [0, 1]"] ;
256 -> 258 ;
259 [label="X[16] <= -0.0\ngini = 0.444\nsamples = 3\nvalue = [2, 1]"] ;
243 -> 259 ;
260 [label="gini = 0.0\nsamples = 2\nvalue = [2, 0]"] ;
259 -> 260 ;
261 [label="gini = 0.0\nsamples = 1\nvalue = [0, 1]"] ;
259 -> 261 ;
262 [label="X[10] <= -0.023\ngini = 0.498\nsamples = 34\nvalue = [18, 16]"] ;
224 -> 262 ;
263 [label="gini = 0.0\nsamples = 6\nvalue = [0, 6]"] ;
262 -> 263 ;
264 [label="X[0] <= -0.029\ngini = 0.459\nsamples = 28\nvalue = [18, 10]"] ;
262 -> 264 ;
265 [label="X[4] <= 0.057\ngini = 0.278\nsamples = 6\nvalue = [1, 5]"] ;
264 -> 265 ;
266 [label="gini = 0.0\nsamples = 5\nvalue = [0, 5]"] ;
265 -> 266 ;
267 [label="gini = 0.0\nsamples = 1\nvalue = [1, 0]"] ;
265 -> 267 ;
268 [label="X[11] <= 0.063\ngini = 0.351\nsamples = 22\nvalue = [17, 5]"] ;
264 -> 268 ;
269 [label="X[9] <= 0.039\ngini = 0.255\nsamples = 20\nvalue = [17, 3]"] ;
268 -> 269 ;
270 [label="X[5] <= -0.059\ngini = 0.188\nsamples = 19\nvalue = [17, 2]"] ;
269 -> 270 ;
271 [label="gini = 0.0\nsamples = 1\nvalue = [0, 1]"] ;
270 -> 271 ;
272 [label="X[2] <= 0.032\ngini = 0.105\nsamples = 18\nvalue = [17, 1]"] ;
270 -> 272 ;
273 [label="gini = 0.0\nsamples = 16\nvalue = [16, 0]"] ;
272 -> 273 ;
274 [label="X[0] <= -0.005\ngini = 0.5\nsamples = 2\nvalue = [1, 1]"] ;
272 -> 274 ;
275 [label="gini = 0.0\nsamples = 1\nvalue = [1, 0]"] ;
274 -> 275 ;
276 [label="gini = 0.0\nsamples = 1\nvalue = [0, 1]"] ;
274 -> 276 ;
277 [label="gini = 0.0\nsamples = 1\nvalue = [0, 1]"] ;
269 -> 277 ;
278 [label="gini = 0.0\nsamples = 2\nvalue = [0, 2]"] ;
268 -> 278 ;
279 [label="X[10] <= 0.025\ngini = 0.298\nsamples = 11\nvalue = [9, 2]"] ;
223 -> 279 ;
280 [label="gini = 0.0\nsamples = 9\nvalue = [9, 0]"] ;
279 -> 280 ;
281 [label="gini = 0.0\nsamples = 2\nvalue = [0, 2]"] ;
279 -> 281 ;
282 [label="X[7] <= -0.062\ngini = 0.498\nsamples = 15422\nvalue = [7172, 8250]"] ;
0 -> 282 [labeldistance=2.5, labelangle=-45, headlabel="False"] ;
283 [label="X[0] <= -0.018\ngini = 0.472\nsamples = 483\nvalue = [184, 299]"] ;
282 -> 283 ;
284 [label="X[1] <= -0.001\ngini = 0.5\nsamples = 137\nvalue = [70, 67]"] ;
283 -> 284 ;
285 [label="X[16] <= -0.065\ngini = 0.471\nsamples = 79\nvalue = [49, 30]"] ;
284 -> 285 ;
286 [label="gini = 0.0\nsamples = 4\nvalue = [0, 4]"] ;
285 -> 286 ;
287 [label="X[8] <= 0.025\ngini = 0.453\nsamples = 75\nvalue = [49, 26]"] ;
285 -> 287 ;
288 [label="X[0] <= -0.064\ngini = 0.391\nsamples = 60\nvalue = [44, 16]"] ;
287 -> 288 ;
289 [label="X[8] <= -0.006\ngini = 0.463\nsamples = 11\nvalue = [4, 7]"] ;
288 -> 289 ;
290 [label="gini = 0.0\nsamples = 6\nvalue = [0, 6]"] ;
289 -> 290 ;
291 [label="X[15] <= -0.029\ngini = 0.32\nsamples = 5\nvalue = [4, 1]"] ;
289 -> 291 ;
292 [label="gini = 0.0\nsamples = 1\nvalue = [0, 1]"] ;
291 -> 292 ;
293 [label="gini = 0.0\nsamples = 4\nvalue = [4, 0]"] ;
291 -> 293 ;
294 [label="X[17] <= 0.022\ngini = 0.3\nsamples = 49\nvalue = [40, 9]"] ;
288 -> 294 ;
295 [label="X[13] <= 0.064\ngini = 0.214\nsamples = 41\nvalue = [36, 5]"] ;
294 -> 295 ;
296 [label="X[2] <= 0.092\ngini = 0.108\nsamples = 35\nvalue = [33, 2]"] ;
295 -> 296 ;
297 [label="X[10] <= 0.051\ngini = 0.057\nsamples = 34\nvalue = [33, 1]"] ;
296 -> 297 ;
298 [label="gini = 0.0\nsamples = 33\nvalue = [33, 0]"] ;
297 -> 298 ;
299 [label="gini = 0.0\nsamples = 1\nvalue = [0, 1]"] ;
297 -> 299 ;
300 [label="gini = 0.0\nsamples = 1\nvalue = [0, 1]"] ;
296 -> 300 ;
301 [label="X[3] <= 0.005\ngini = 0.5\nsamples = 6\nvalue = [3, 3]"] ;
295 -> 301 ;
302 [label="gini = 0.0\nsamples = 3\nvalue = [3, 0]"] ;
301 -> 302 ;
303 [label="gini = 0.0\nsamples = 3\nvalue = [0, 3]"] ;
301 -> 303 ;
304 [label="X[3] <= -0.001\ngini = 0.5\nsamples = 8\nvalue = [4, 4]"] ;
294 -> 304 ;
305 [label="gini = 0.0\nsamples = 3\nvalue = [0, 3]"] ;
304 -> 305 ;
306 [label="X[4] <= -0.066\ngini = 0.32\nsamples = 5\nvalue = [4, 1]"] ;
304 -> 306 ;
307 [label="gini = 0.0\nsamples = 1\nvalue = [0, 1]"] ;
306 -> 307 ;
308 [label="gini = 0.0\nsamples = 4\nvalue = [4, 0]"] ;
306 -> 308 ;
309 [label="X[6] <= 0.06\ngini = 0.444\nsamples = 15\nvalue = [5, 10]"] ;
287 -> 309 ;
310 [label="X[4] <= 0.075\ngini = 0.165\nsamples = 11\nvalue = [1, 10]"] ;
309 -> 310 ;
311 [label="gini = 0.0\nsamples = 10\nvalue = [0, 10]"] ;
310 -> 311 ;
312 [label="gini = 0.0\nsamples = 1\nvalue = [1, 0]"] ;
310 -> 312 ;
313 [label="gini = 0.0\nsamples = 4\nvalue = [4, 0]"] ;
309 -> 313 ;
314 [label="X[15] <= 0.067\ngini = 0.462\nsamples = 58\nvalue = [21, 37]"] ;
284 -> 314 ;
315 [label="X[16] <= -0.079\ngini = 0.422\nsamples = 53\nvalue = [16, 37]"] ;
314 -> 315 ;
316 [label="gini = 0.0\nsamples = 3\nvalue = [3, 0]"] ;
315 -> 316 ;
317 [label="X[3] <= 0.019\ngini = 0.385\nsamples = 50\nvalue = [13, 37]"] ;
315 -> 317 ;
318 [label="X[3] <= -0.02\ngini = 0.467\nsamples = 35\nvalue = [13, 22]"] ;
317 -> 318 ;
319 [label="X[1] <= 0.002\ngini = 0.219\nsamples = 16\nvalue = [2, 14]"] ;
318 -> 319 ;
320 [label="X[9] <= -0.017\ngini = 0.444\nsamples = 3\nvalue = [2, 1]"] ;
319 -> 320 ;
321 [label="gini = 0.0\nsamples = 2\nvalue = [2, 0]"] ;
320 -> 321 ;
322 [label="gini = 0.0\nsamples = 1\nvalue = [0, 1]"] ;
320 -> 322 ;
323 [label="gini = 0.0\nsamples = 13\nvalue = [0, 13]"] ;
319 -> 323 ;
324 [label="X[16] <= 0.015\ngini = 0.488\nsamples = 19\nvalue = [11, 8]"] ;
318 -> 324 ;
325 [label="X[13] <= 0.009\ngini = 0.473\nsamples = 13\nvalue = [5, 8]"] ;
324 -> 325 ;
326 [label="X[11] <= 0.003\ngini = 0.32\nsamples = 10\nvalue = [2, 8]"] ;
325 -> 326 ;
327 [label="X[10] <= 0.07\ngini = 0.444\nsamples = 3\nvalue = [2, 1]"] ;
326 -> 327 ;
328 [label="gini = 0.0\nsamples = 2\nvalue = [2, 0]"] ;
327 -> 328 ;
329 [label="gini = 0.0\nsamples = 1\nvalue = [0, 1]"] ;
327 -> 329 ;
330 [label="gini = 0.0\nsamples = 7\nvalue = [0, 7]"] ;
326 -> 330 ;
331 [label="gini = 0.0\nsamples = 3\nvalue = [3, 0]"] ;
325 -> 331 ;
332 [label="gini = 0.0\nsamples = 6\nvalue = [6, 0]"] ;
324 -> 332 ;
333 [label="gini = 0.0\nsamples = 15\nvalue = [0, 15]"] ;
317 -> 333 ;
334 [label="gini = 0.0\nsamples = 5\nvalue = [5, 0]"] ;
314 -> 334 ;
335 [label="X[3] <= 0.075\ngini = 0.442\nsamples = 346\nvalue = [114, 232]"] ;
283 -> 335 ;
336 [label="X[17] <= 0.057\ngini = 0.431\nsamples = 334\nvalue = [105, 229]"] ;
335 -> 336 ;
337 [label="X[16] <= -0.017\ngini = 0.445\nsamples = 308\nvalue = [103, 205]"] ;
336 -> 337 ;
338 [label="X[14] <= -0.02\ngini = 0.496\nsamples = 81\nvalue = [37, 44]"] ;
337 -> 338 ;
339 [label="X[12] <= -0.015\ngini = 0.375\nsamples = 20\nvalue = [15, 5]"] ;
338 -> 339 ;
340 [label="X[16] <= -0.02\ngini = 0.278\nsamples = 6\nvalue = [1, 5]"] ;
339 -> 340 ;
341 [label="gini = 0.0\nsamples = 5\nvalue = [0, 5]"] ;
340 -> 341 ;
342 [label="gini = 0.0\nsamples = 1\nvalue = [1, 0]"] ;
340 -> 342 ;
343 [label="gini = 0.0\nsamples = 14\nvalue = [14, 0]"] ;
339 -> 343 ;
344 [label="X[8] <= 0.011\ngini = 0.461\nsamples = 61\nvalue = [22, 39]"] ;
338 -> 344 ;
345 [label="X[8] <= -0.033\ngini = 0.252\nsamples = 27\nvalue = [4, 23]"] ;
344 -> 345 ;
346 [label="gini = 0.0\nsamples = 2\nvalue = [2, 0]"] ;
345 -> 346 ;
347 [label="X[14] <= 0.091\ngini = 0.147\nsamples = 25\nvalue = [2, 23]"] ;
345 -> 347 ;
348 [label="X[12] <= -0.077\ngini = 0.08\nsamples = 24\nvalue = [1, 23]"] ;
347 -> 348 ;
349 [label="X[8] <= -0.007\ngini = 0.5\nsamples = 2\nvalue = [1, 1]"] ;
348 -> 349 ;
350 [label="gini = 0.0\nsamples = 1\nvalue = [1, 0]"] ;
349 -> 350 ;
351 [label="gini = 0.0\nsamples = 1\nvalue = [0, 1]"] ;
349 -> 351 ;
352 [label="gini = 0.0\nsamples = 22\nvalue = [0, 22]"] ;
348 -> 352 ;
353 [label="gini = 0.0\nsamples = 1\nvalue = [1, 0]"] ;
347 -> 353 ;
354 [label="X[14] <= -0.001\ngini = 0.498\nsamples = 34\nvalue = [18, 16]"] ;
344 -> 354 ;
355 [label="X[9] <= 0.056\ngini = 0.198\nsamples = 9\nvalue = [1, 8]"] ;
354 -> 355 ;
356 [label="gini = 0.0\nsamples = 8\nvalue = [0, 8]"] ;
355 -> 356 ;
357 [label="gini = 0.0\nsamples = 1\nvalue = [1, 0]"] ;
355 -> 357 ;
358 [label="X[4] <= -0.04\ngini = 0.435\nsamples = 25\nvalue = [17, 8]"] ;
354 -> 358 ;
359 [label="gini = 0.0\nsamples = 3\nvalue = [0, 3]"] ;
358 -> 359 ;
360 [label="X[10] <= -0.031\ngini = 0.351\nsamples = 22\nvalue = [17, 5]"] ;
358 -> 360 ;
361 [label="X[2] <= 0.002\ngini = 0.375\nsamples = 4\nvalue = [1, 3]"] ;
360 -> 361 ;
362 [label="gini = 0.0\nsamples = 3\nvalue = [0, 3]"] ;
361 -> 362 ;
363 [label="gini = 0.0\nsamples = 1\nvalue = [1, 0]"] ;
361 -> 363 ;
364 [label="X[7] <= -0.105\ngini = 0.198\nsamples = 18\nvalue = [16, 2]"] ;
360 -> 364 ;
365 [label="X[11] <= -0.019\ngini = 0.444\nsamples = 3\nvalue = [1, 2]"] ;
364 -> 365 ;
366 [label="gini = 0.0\nsamples = 1\nvalue = [1, 0]"] ;
365 -> 366 ;
367 [label="gini = 0.0\nsamples = 2\nvalue = [0, 2]"] ;
365 -> 367 ;
368 [label="gini = 0.0\nsamples = 15\nvalue = [15, 0]"] ;
364 -> 368 ;
369 [label="X[6] <= 0.087\ngini = 0.412\nsamples = 227\nvalue = [66, 161]"] ;
337 -> 369 ;
370 [label="X[9] <= 0.039\ngini = 0.4\nsamples = 221\nvalue = [61, 160]"] ;
369 -> 370 ;
371 [label="X[2] <= -0.058\ngini = 0.424\nsamples = 197\nvalue = [60, 137]"] ;
370 -> 371 ;
372 [label="gini = 0.0\nsamples = 4\nvalue = [4, 0]"] ;
371 -> 372 ;
373 [label="X[14] <= -0.005\ngini = 0.412\nsamples = 193\nvalue = [56, 137]"] ;
371 -> 373 ;
374 [label="X[4] <= 0.073\ngini = 0.323\nsamples = 84\nvalue = [17, 67]"] ;
373 -> 374 ;
375 [label="X[11] <= -0.008\ngini = 0.299\nsamples = 82\nvalue = [15, 67]"] ;
374 -> 375 ;
376 [label="X[9] <= 0.028\ngini = 0.062\nsamples = 31\nvalue = [1, 30]"] ;
375 -> 376 ;
377 [label="gini = 0.0\nsamples = 28\nvalue = [0, 28]"] ;
376 -> 377 ;
378 [label="X[2] <= 0.011\ngini = 0.444\nsamples = 3\nvalue = [1, 2]"] ;
376 -> 378 ;
379 [label="gini = 0.0\nsamples = 1\nvalue = [1, 0]"] ;
378 -> 379 ;
380 [label="gini = 0.0\nsamples = 2\nvalue = [0, 2]"] ;
378 -> 380 ;
381 [label="X[8] <= -0.003\ngini = 0.398\nsamples = 51\nvalue = [14, 37]"] ;
375 -> 381 ;
382 [label="X[9] <= -0.022\ngini = 0.5\nsamples = 18\nvalue = [9, 9]"] ;
381 -> 382 ;
383 [label="gini = 0.0\nsamples = 5\nvalue = [5, 0]"] ;
382 -> 383 ;
384 [label="X[8] <= -0.016\ngini = 0.426\nsamples = 13\nvalue = [4, 9]"] ;
382 -> 384 ;
385 [label="gini = 0.0\nsamples = 7\nvalue = [0, 7]"] ;
384 -> 385 ;
386 [label="X[12] <= 0.011\ngini = 0.444\nsamples = 6\nvalue = [4, 2]"] ;
384 -> 386 ;
387 [label="gini = 0.0\nsamples = 4\nvalue = [4, 0]"] ;
386 -> 387 ;
388 [label="gini = 0.0\nsamples = 2\nvalue = [0, 2]"] ;
386 -> 388 ;
389 [label="X[15] <= 0.025\ngini = 0.257\nsamples = 33\nvalue = [5, 28]"] ;
381 -> 389 ;
390 [label="X[7] <= -0.067\ngini = 0.077\nsamples = 25\nvalue = [1, 24]"] ;
389 -> 390 ;
391 [label="gini = 0.0\nsamples = 21\nvalue = [0, 21]"] ;
390 -> 391 ;
392 [label="X[8] <= 0.015\ngini = 0.375\nsamples = 4\nvalue = [1, 3]"] ;
390 -> 392 ;
393 [label="gini = 0.0\nsamples = 1\nvalue = [1, 0]"] ;
392 -> 393 ;
394 [label="gini = 0.0\nsamples = 3\nvalue = [0, 3]"] ;
392 -> 394 ;
395 [label="X[10] <= 0.007\ngini = 0.5\nsamples = 8\nvalue = [4, 4]"] ;
389 -> 395 ;
396 [label="gini = 0.0\nsamples = 3\nvalue = [0, 3]"] ;
395 -> 396 ;
397 [label="X[14] <= -0.055\ngini = 0.32\nsamples = 5\nvalue = [4, 1]"] ;
395 -> 397 ;
398 [label="gini = 0.0\nsamples = 1\nvalue = [0, 1]"] ;
397 -> 398 ;
399 [label="gini = 0.0\nsamples = 4\nvalue = [4, 0]"] ;
397 -> 399 ;
400 [label="gini = 0.0\nsamples = 2\nvalue = [2, 0]"] ;
374 -> 400 ;
401 [label="X[14] <= 0.046\ngini = 0.46\nsamples = 109\nvalue = [39, 70]"] ;
373 -> 401 ;
402 [label="X[15] <= -0.058\ngini = 0.48\nsamples = 95\nvalue = [38, 57]"] ;
401 -> 402 ;
403 [label="gini = 0.0\nsamples = 4\nvalue = [4, 0]"] ;
402 -> 403 ;
404 [label="X[2] <= -0.021\ngini = 0.468\nsamples = 91\nvalue = [34, 57]"] ;
402 -> 404 ;
405 [label="X[14] <= -0.004\ngini = 0.245\nsamples = 21\nvalue = [3, 18]"] ;
404 -> 405 ;
406 [label="gini = 0.0\nsamples = 1\nvalue = [1, 0]"] ;
405 -> 406 ;
407 [label="X[7] <= -0.069\ngini = 0.18\nsamples = 20\nvalue = [2, 18]"] ;
405 -> 407 ;
408 [label="X[17] <= 0.018\ngini = 0.105\nsamples = 18\nvalue = [1, 17]"] ;
407 -> 408 ;
409 [label="gini = 0.0\nsamples = 14\nvalue = [0, 14]"] ;
408 -> 409 ;
410 [label="X[6] <= -0.004\ngini = 0.375\nsamples = 4\nvalue = [1, 3]"] ;
408 -> 410 ;
411 [label="gini = 0.0\nsamples = 3\nvalue = [0, 3]"] ;
410 -> 411 ;
412 [label="gini = 0.0\nsamples = 1\nvalue = [1, 0]"] ;
410 -> 412 ;
413 [label="X[2] <= -0.043\ngini = 0.5\nsamples = 2\nvalue = [1, 1]"] ;
407 -> 413 ;
414 [label="gini = 0.0\nsamples = 1\nvalue = [1, 0]"] ;
413 -> 414 ;
415 [label="gini = 0.0\nsamples = 1\nvalue = [0, 1]"] ;
413 -> 415 ;
416 [label="X[17] <= -0.001\ngini = 0.493\nsamples = 70\nvalue = [31, 39]"] ;
404 -> 416 ;
417 [label="X[3] <= 0.0\ngini = 0.48\nsamples = 35\nvalue = [21, 14]"] ;
416 -> 417 ;
418 [label="X[3] <= -0.021\ngini = 0.486\nsamples = 24\nvalue = [10, 14]"] ;
417 -> 418 ;
419 [label="X[9] <= -0.002\ngini = 0.375\nsamples = 12\nvalue = [9, 3]"] ;
418 -> 419 ;
420 [label="gini = 0.0\nsamples = 8\nvalue = [8, 0]"] ;
419 -> 420 ;
421 [label="X[5] <= 0.0\ngini = 0.375\nsamples = 4\nvalue = [1, 3]"] ;
419 -> 421 ;
422 [label="gini = 0.0\nsamples = 1\nvalue = [1, 0]"] ;
421 -> 422 ;
423 [label="gini = 0.0\nsamples = 3\nvalue = [0, 3]"] ;
421 -> 423 ;
424 [label="X[4] <= 0.016\ngini = 0.153\nsamples = 12\nvalue = [1, 11]"] ;
418 -> 424 ;
425 [label="gini = 0.0\nsamples = 11\nvalue = [0, 11]"] ;
424 -> 425 ;
426 [label="gini = 0.0\nsamples = 1\nvalue = [1, 0]"] ;
424 -> 426 ;
427 [label="gini = 0.0\nsamples = 11\nvalue = [11, 0]"] ;
417 -> 427 ;
428 [label="X[8] <= 0.075\ngini = 0.408\nsamples = 35\nvalue = [10, 25]"] ;
416 -> 428 ;
429 [label="X[14] <= 0.028\ngini = 0.367\nsamples = 33\nvalue = [8, 25]"] ;
428 -> 429 ;
430 [label="X[9] <= 0.024\ngini = 0.285\nsamples = 29\nvalue = [5, 24]"] ;
429 -> 430 ;
431 [label="X[15] <= 0.118\ngini = 0.204\nsamples = 26\nvalue = [3, 23]"] ;
430 -> 431 ;
432 [label="X[11] <= 0.037\ngini = 0.147\nsamples = 25\nvalue = [2, 23]"] ;
431 -> 432 ;
433 [label="gini = 0.0\nsamples = 18\nvalue = [0, 18]"] ;
432 -> 433 ;
434 [label="X[2] <= 0.001\ngini = 0.408\nsamples = 7\nvalue = [2, 5]"] ;
432 -> 434 ;
435 [label="X[15] <= 0.016\ngini = 0.444\nsamples = 3\nvalue = [2, 1]"] ;
434 -> 435 ;
436 [label="gini = 0.0\nsamples = 2\nvalue = [2, 0]"] ;
435 -> 436 ;
437 [label="gini = 0.0\nsamples = 1\nvalue = [0, 1]"] ;
435 -> 437 ;
438 [label="gini = 0.0\nsamples = 4\nvalue = [0, 4]"] ;
434 -> 438 ;
439 [label="gini = 0.0\nsamples = 1\nvalue = [1, 0]"] ;
431 -> 439 ;
440 [label="X[15] <= -0.024\ngini = 0.444\nsamples = 3\nvalue = [2, 1]"] ;
430 -> 440 ;
441 [label="gini = 0.0\nsamples = 1\nvalue = [0, 1]"] ;
440 -> 441 ;
442 [label="gini = 0.0\nsamples = 2\nvalue = [2, 0]"] ;
440 -> 442 ;
443 [label="X[4] <= 0.007\ngini = 0.375\nsamples = 4\nvalue = [3, 1]"] ;
429 -> 443 ;
444 [label="gini = 0.0\nsamples = 3\nvalue = [3, 0]"] ;
443 -> 444 ;
445 [label="gini = 0.0\nsamples = 1\nvalue = [0, 1]"] ;
443 -> 445 ;
446 [label="gini = 0.0\nsamples = 2\nvalue = [2, 0]"] ;
428 -> 446 ;
447 [label="X[0] <= 0.053\ngini = 0.133\nsamples = 14\nvalue = [1, 13]"] ;
401 -> 447 ;
448 [label="gini = 0.0\nsamples = 13\nvalue = [0, 13]"] ;
447 -> 448 ;
449 [label="gini = 0.0\nsamples = 1\nvalue = [1, 0]"] ;
447 -> 449 ;
450 [label="X[10] <= -0.067\ngini = 0.08\nsamples = 24\nvalue = [1, 23]"] ;
370 -> 450 ;
451 [label="gini = 0.0\nsamples = 1\nvalue = [1, 0]"] ;
450 -> 451 ;
452 [label="gini = 0.0\nsamples = 23\nvalue = [0, 23]"] ;
450 -> 452 ;
453 [label="X[0] <= -0.001\ngini = 0.278\nsamples = 6\nvalue = [5, 1]"] ;
369 -> 453 ;
454 [label="gini = 0.0\nsamples = 1\nvalue = [0, 1]"] ;
453 -> 454 ;
455 [label="gini = 0.0\nsamples = 5\nvalue = [5, 0]"] ;
453 -> 455 ;
456 [label="X[15] <= -0.045\ngini = 0.142\nsamples = 26\nvalue = [2, 24]"] ;
336 -> 456 ;
457 [label="X[14] <= -0.107\ngini = 0.444\nsamples = 3\nvalue = [2, 1]"] ;
456 -> 457 ;
458 [label="gini = 0.0\nsamples = 1\nvalue = [0, 1]"] ;
457 -> 458 ;
459 [label="gini = 0.0\nsamples = 2\nvalue = [2, 0]"] ;
457 -> 459 ;
460 [label="gini = 0.0\nsamples = 23\nvalue = [0, 23]"] ;
456 -> 460 ;
461 [label="X[6] <= 0.023\ngini = 0.375\nsamples = 12\nvalue = [9, 3]"] ;
335 -> 461 ;
462 [label="X[14] <= 0.142\ngini = 0.18\nsamples = 10\nvalue = [9, 1]"] ;
461 -> 462 ;
463 [label="gini = 0.0\nsamples = 9\nvalue = [9, 0]"] ;
462 -> 463 ;
464 [label="gini = 0.0\nsamples = 1\nvalue = [0, 1]"] ;
462 -> 464 ;
465 [label="gini = 0.0\nsamples = 2\nvalue = [0, 2]"] ;
461 -> 465 ;
466 [label="X[17] <= 0.006\ngini = 0.498\nsamples = 14939\nvalue = [6988, 7951]"] ;
282 -> 466 ;
467 [label="X[12] <= 0.124\ngini = 0.496\nsamples = 8897\nvalue = [4062, 4835]"] ;
466 -> 467 ;
468 [label="X[15] <= 0.044\ngini = 0.496\nsamples = 8852\nvalue = [4031, 4821]"] ;
467 -> 468 ;
469 [label="X[5] <= -0.01\ngini = 0.495\nsamples = 8233\nvalue = [3713, 4520]"] ;
468 -> 469 ;
470 [label="X[5] <= -0.013\ngini = 0.499\nsamples = 2787\nvalue = [1324, 1463]"] ;
469 -> 470 ;
471 [label="X[6] <= -0.017\ngini = 0.497\nsamples = 2458\nvalue = [1139, 1319]"] ;
470 -> 471 ;
472 [label="X[4] <= -0.021\ngini = 0.48\nsamples = 589\nvalue = [236, 353]"] ;
471 -> 472 ;
473 [label="X[11] <= -0.011\ngini = 0.496\nsamples = 130\nvalue = [71, 59]"] ;
472 -> 473 ;
474 [label="X[0] <= -0.025\ngini = 0.465\nsamples = 49\nvalue = [18, 31]"] ;
473 -> 474 ;
475 [label="X[11] <= -0.018\ngini = 0.245\nsamples = 7\nvalue = [6, 1]"] ;
474 -> 475 ;
476 [label="gini = 0.0\nsamples = 6\nvalue = [6, 0]"] ;
475 -> 476 ;
477 [label="gini = 0.0\nsamples = 1\nvalue = [0, 1]"] ;
475 -> 477 ;
478 [label="X[4] <= -0.038\ngini = 0.408\nsamples = 42\nvalue = [12, 30]"] ;
474 -> 478 ;
479 [label="X[13] <= 0.039\ngini = 0.1\nsamples = 19\nvalue = [1, 18]"] ;
478 -> 479 ;
480 [label="gini = 0.0\nsamples = 17\nvalue = [0, 17]"] ;
479 -> 480 ;
481 [label="X[3] <= 0.019\ngini = 0.5\nsamples = 2\nvalue = [1, 1]"] ;
479 -> 481 ;
482 [label="gini = 0.0\nsamples = 1\nvalue = [0, 1]"] ;
481 -> 482 ;
483 [label="gini = 0.0\nsamples = 1\nvalue = [1, 0]"] ;
481 -> 483 ;
484 [label="X[6] <= -0.036\ngini = 0.499\nsamples = 23\nvalue = [11, 12]"] ;
478 -> 484 ;
485 [label="X[9] <= 0.011\ngini = 0.375\nsamples = 12\nvalue = [9, 3]"] ;
484 -> 485 ;
486 [label="gini = 0.0\nsamples = 8\nvalue = [8, 0]"] ;
485 -> 486 ;
487 [label="X[6] <= -0.042\ngini = 0.375\nsamples = 4\nvalue = [1, 3]"] ;
485 -> 487 ;
488 [label="gini = 0.0\nsamples = 3\nvalue = [0, 3]"] ;
487 -> 488 ;
489 [label="gini = 0.0\nsamples = 1\nvalue = [1, 0]"] ;
487 -> 489 ;
490 [label="X[13] <= -0.029\ngini = 0.298\nsamples = 11\nvalue = [2, 9]"] ;
484 -> 490 ;
491 [label="gini = 0.0\nsamples = 2\nvalue = [2, 0]"] ;
490 -> 491 ;
492 [label="gini = 0.0\nsamples = 9\nvalue = [0, 9]"] ;
490 -> 492 ;
493 [label="X[9] <= -0.052\ngini = 0.452\nsamples = 81\nvalue = [53, 28]"] ;
473 -> 493 ;
494 [label="gini = 0.0\nsamples = 4\nvalue = [0, 4]"] ;
493 -> 494 ;
495 [label="X[15] <= 0.023\ngini = 0.429\nsamples = 77\nvalue = [53, 24]"] ;
493 -> 495 ;
496 [label="X[2] <= 0.002\ngini = 0.472\nsamples = 63\nvalue = [39, 24]"] ;
495 -> 496 ;
497 [label="X[6] <= -0.076\ngini = 0.334\nsamples = 33\nvalue = [26, 7]"] ;
496 -> 497 ;
498 [label="gini = 0.0\nsamples = 2\nvalue = [0, 2]"] ;
497 -> 498 ;
499 [label="X[17] <= -0.043\ngini = 0.271\nsamples = 31\nvalue = [26, 5]"] ;
497 -> 499 ;
500 [label="X[15] <= -0.006\ngini = 0.48\nsamples = 5\nvalue = [2, 3]"] ;
499 -> 500 ;
501 [label="gini = 0.0\nsamples = 2\nvalue = [2, 0]"] ;
500 -> 501 ;
502 [label="gini = 0.0\nsamples = 3\nvalue = [0, 3]"] ;
500 -> 502 ;
503 [label="X[16] <= -0.018\ngini = 0.142\nsamples = 26\nvalue = [24, 2]"] ;
499 -> 503 ;
504 [label="X[8] <= 0.002\ngini = 0.444\nsamples = 6\nvalue = [4, 2]"] ;
503 -> 504 ;
505 [label="gini = 0.0\nsamples = 2\nvalue = [0, 2]"] ;
504 -> 505 ;
506 [label="gini = 0.0\nsamples = 4\nvalue = [4, 0]"] ;
504 -> 506 ;
507 [label="gini = 0.0\nsamples = 20\nvalue = [20, 0]"] ;
503 -> 507 ;
508 [label="X[8] <= 0.007\ngini = 0.491\nsamples = 30\nvalue = [13, 17]"] ;
496 -> 508 ;
509 [label="X[9] <= 0.035\ngini = 0.408\nsamples = 14\nvalue = [10, 4]"] ;
508 -> 509 ;
510 [label="X[7] <= -0.038\ngini = 0.278\nsamples = 12\nvalue = [10, 2]"] ;
509 -> 510 ;
511 [label="gini = 0.0\nsamples = 2\nvalue = [0, 2]"] ;
510 -> 511 ;
512 [label="gini = 0.0\nsamples = 10\nvalue = [10, 0]"] ;
510 -> 512 ;
513 [label="gini = 0.0\nsamples = 2\nvalue = [0, 2]"] ;
509 -> 513 ;
514 [label="X[16] <= 0.035\ngini = 0.305\nsamples = 16\nvalue = [3, 13]"] ;
508 -> 514 ;
515 [label="gini = 0.0\nsamples = 13\nvalue = [0, 13]"] ;
514 -> 515 ;
516 [label="gini = 0.0\nsamples = 3\nvalue = [3, 0]"] ;
514 -> 516 ;
517 [label="gini = 0.0\nsamples = 14\nvalue = [14, 0]"] ;
495 -> 517 ;
518 [label="X[7] <= -0.041\ngini = 0.461\nsamples = 459\nvalue = [165, 294]"] ;
472 -> 518 ;
519 [label="X[4] <= 0.0\ngini = 0.386\nsamples = 23\nvalue = [17, 6]"] ;
518 -> 519 ;
520 [label="X[10] <= 0.001\ngini = 0.469\nsamples = 8\nvalue = [3, 5]"] ;
519 -> 520 ;
521 [label="gini = 0.0\nsamples = 3\nvalue = [3, 0]"] ;
520 -> 521 ;
522 [label="gini = 0.0\nsamples = 5\nvalue = [0, 5]"] ;
520 -> 522 ;
523 [label="X[12] <= 0.038\ngini = 0.124\nsamples = 15\nvalue = [14, 1]"] ;
519 -> 523 ;
524 [label="gini = 0.0\nsamples = 14\nvalue = [14, 0]"] ;
523 -> 524 ;
525 [label="gini = 0.0\nsamples = 1\nvalue = [0, 1]"] ;
523 -> 525 ;
526 [label="X[4] <= 0.015\ngini = 0.448\nsamples = 436\nvalue = [148, 288]"] ;
518 -> 526 ;
527 [label="X[10] <= 0.033\ngini = 0.395\nsamples = 255\nvalue = [69, 186]"] ;
526 -> 527 ;
528 [label="X[8] <= -0.025\ngini = 0.36\nsamples = 217\nvalue = [51, 166]"] ;
527 -> 528 ;
529 [label="X[17] <= 0.003\ngini = 0.071\nsamples = 27\nvalue = [1, 26]"] ;
528 -> 529 ;
530 [label="gini = 0.0\nsamples = 26\nvalue = [0, 26]"] ;
529 -> 530 ;
531 [label="gini = 0.0\nsamples = 1\nvalue = [1, 0]"] ;
529 -> 531 ;
532 [label="X[14] <= -0.057\ngini = 0.388\nsamples = 190\nvalue = [50, 140]"] ;
528 -> 532 ;
533 [label="X[17] <= -0.041\ngini = 0.408\nsamples = 7\nvalue = [5, 2]"] ;
532 -> 533 ;
534 [label="gini = 0.0\nsamples = 2\nvalue = [0, 2]"] ;
533 -> 534 ;
535 [label="gini = 0.0\nsamples = 5\nvalue = [5, 0]"] ;
533 -> 535 ;
536 [label="X[1] <= -0.093\ngini = 0.371\nsamples = 183\nvalue = [45, 138]"] ;
532 -> 536 ;
537 [label="gini = 0.0\nsamples = 2\nvalue = [2, 0]"] ;
536 -> 537 ;
538 [label="X[9] <= 0.003\ngini = 0.362\nsamples = 181\nvalue = [43, 138]"] ;
536 -> 538 ;
539 [label="X[10] <= 0.006\ngini = 0.25\nsamples = 82\nvalue = [12, 70]"] ;
538 -> 539 ;
540 [label="X[16] <= -0.101\ngini = 0.115\nsamples = 49\nvalue = [3, 46]"] ;
539 -> 540 ;
541 [label="gini = 0.0\nsamples = 1\nvalue = [1, 0]"] ;
540 -> 541 ;
542 [label="X[1] <= -0.062\ngini = 0.08\nsamples = 48\nvalue = [2, 46]"] ;
540 -> 542 ;
543 [label="X[10] <= 0.002\ngini = 0.5\nsamples = 2\nvalue = [1, 1]"] ;
542 -> 543 ;
544 [label="gini = 0.0\nsamples = 1\nvalue = [1, 0]"] ;
543 -> 544 ;
545 [label="gini = 0.0\nsamples = 1\nvalue = [0, 1]"] ;
543 -> 545 ;
546 [label="X[7] <= -0.031\ngini = 0.043\nsamples = 46\nvalue = [1, 45]"] ;
542 -> 546 ;
547 [label="X[14] <= -0.015\ngini = 0.5\nsamples = 2\nvalue = [1, 1]"] ;
546 -> 547 ;
548 [label="gini = 0.0\nsamples = 1\nvalue = [1, 0]"] ;
547 -> 548 ;
549 [label="gini = 0.0\nsamples = 1\nvalue = [0, 1]"] ;
547 -> 549 ;
550 [label="gini = 0.0\nsamples = 44\nvalue = [0, 44]"] ;
546 -> 550 ;
551 [label="X[6] <= -0.022\ngini = 0.397\nsamples = 33\nvalue = [9, 24]"] ;
539 -> 551 ;
552 [label="X[10] <= 0.008\ngini = 0.26\nsamples = 26\nvalue = [4, 22]"] ;
551 -> 552 ;
553 [label="X[16] <= -0.031\ngini = 0.444\nsamples = 3\nvalue = [2, 1]"] ;
552 -> 553 ;
554 [label="gini = 0.0\nsamples = 1\nvalue = [0, 1]"] ;
553 -> 554 ;
555 [label="gini = 0.0\nsamples = 2\nvalue = [2, 0]"] ;
553 -> 555 ;
556 [label="X[14] <= 0.004\ngini = 0.159\nsamples = 23\nvalue = [2, 21]"] ;
552 -> 556 ;
557 [label="gini = 0.0\nsamples = 16\nvalue = [0, 16]"] ;
556 -> 557 ;
558 [label="X[4] <= 0.001\ngini = 0.408\nsamples = 7\nvalue = [2, 5]"] ;
556 -> 558 ;
559 [label="gini = 0.0\nsamples = 4\nvalue = [0, 4]"] ;
558 -> 559 ;
560 [label="X[3] <= 0.014\ngini = 0.444\nsamples = 3\nvalue = [2, 1]"] ;
558 -> 560 ;
561 [label="gini = 0.0\nsamples = 2\nvalue = [2, 0]"] ;
560 -> 561 ;
562 [label="gini = 0.0\nsamples = 1\nvalue = [0, 1]"] ;
560 -> 562 ;
563 [label="X[1] <= 0.024\ngini = 0.408\nsamples = 7\nvalue = [5, 2]"] ;
551 -> 563 ;
564 [label="gini = 0.0\nsamples = 5\nvalue = [5, 0]"] ;
563 -> 564 ;
565 [label="gini = 0.0\nsamples = 2\nvalue = [0, 2]"] ;
563 -> 565 ;
566 [label="X[8] <= -0.021\ngini = 0.43\nsamples = 99\nvalue = [31, 68]"] ;
538 -> 566 ;
567 [label="X[17] <= 0.002\ngini = 0.278\nsamples = 6\nvalue = [5, 1]"] ;
566 -> 567 ;
568 [label="gini = 0.0\nsamples = 5\nvalue = [5, 0]"] ;
567 -> 568 ;
569 [label="gini = 0.0\nsamples = 1\nvalue = [0, 1]"] ;
567 -> 569 ;
570 [label="X[3] <= -0.067\ngini = 0.403\nsamples = 93\nvalue = [26, 67]"] ;
566 -> 570 ;
571 [label="gini = 0.0\nsamples = 2\nvalue = [2, 0]"] ;
570 -> 571 ;
572 [label="X[3] <= 0.041\ngini = 0.388\nsamples = 91\nvalue = [24, 67]"] ;
570 -> 572 ;
573 [label="X[4] <= -0.007\ngini = 0.353\nsamples = 83\nvalue = [19, 64]"] ;
572 -> 573 ;
574 [label="X[11] <= 0.019\ngini = 0.483\nsamples = 22\nvalue = [9, 13]"] ;
573 -> 574 ;
575 [label="X[4] <= -0.012\ngini = 0.36\nsamples = 17\nvalue = [4, 13]"] ;
574 -> 575 ;
576 [label="X[10] <= 0.028\ngini = 0.142\nsamples = 13\nvalue = [1, 12]"] ;
575 -> 576 ;
577 [label="gini = 0.0\nsamples = 12\nvalue = [0, 12]"] ;
576 -> 577 ;
578 [label="gini = 0.0\nsamples = 1\nvalue = [1, 0]"] ;
576 -> 578 ;
579 [label="X[11] <= -0.005\ngini = 0.375\nsamples = 4\nvalue = [3, 1]"] ;
575 -> 579 ;
580 [label="gini = 0.0\nsamples = 3\nvalue = [3, 0]"] ;
579 -> 580 ;
581 [label="gini = 0.0\nsamples = 1\nvalue = [0, 1]"] ;
579 -> 581 ;
582 [label="gini = 0.0\nsamples = 5\nvalue = [5, 0]"] ;
574 -> 582 ;
583 [label="X[17] <= -0.002\ngini = 0.274\nsamples = 61\nvalue = [10, 51]"] ;
573 -> 583 ;
584 [label="X[9] <= 0.003\ngini = 0.201\nsamples = 53\nvalue = [6, 47]"] ;
583 -> 584 ;
585 [label="gini = 0.0\nsamples = 1\nvalue = [1, 0]"] ;
584 -> 585 ;
586 [label="X[17] <= -0.126\ngini = 0.174\nsamples = 52\nvalue = [5, 47]"] ;
584 -> 586 ;
587 [label="gini = 0.0\nsamples = 1\nvalue = [1, 0]"] ;
586 -> 587 ;
588 [label="X[13] <= 0.155\ngini = 0.145\nsamples = 51\nvalue = [4, 47]"] ;
586 -> 588 ;
589 [label="X[6] <= -0.043\ngini = 0.113\nsamples = 50\nvalue = [3, 47]"] ;
588 -> 589 ;
590 [label="X[3] <= -0.002\ngini = 0.32\nsamples = 15\nvalue = [3, 12]"] ;
589 -> 590 ;
591 [label="X[10] <= -0.025\ngini = 0.48\nsamples = 5\nvalue = [3, 2]"] ;
590 -> 591 ;
592 [label="gini = 0.0\nsamples = 2\nvalue = [0, 2]"] ;
591 -> 592 ;
593 [label="gini = 0.0\nsamples = 3\nvalue = [3, 0]"] ;
591 -> 593 ;
594 [label="gini = 0.0\nsamples = 10\nvalue = [0, 10]"] ;
590 -> 594 ;
595 [label="gini = 0.0\nsamples = 35\nvalue = [0, 35]"] ;
589 -> 595 ;
596 [label="gini = 0.0\nsamples = 1\nvalue = [1, 0]"] ;
588 -> 596 ;
597 [label="X[9] <= 0.031\ngini = 0.5\nsamples = 8\nvalue = [4, 4]"] ;
583 -> 597 ;
598 [label="gini = 0.0\nsamples = 4\nvalue = [0, 4]"] ;
597 -> 598 ;
599 [label="gini = 0.0\nsamples = 4\nvalue = [4, 0]"] ;
597 -> 599 ;
600 [label="X[16] <= -0.001\ngini = 0.469\nsamples = 8\nvalue = [5, 3]"] ;
572 -> 600 ;
601 [label="gini = 0.0\nsamples = 3\nvalue = [0, 3]"] ;
600 -> 601 ;
602 [label="gini = 0.0\nsamples = 5\nvalue = [5, 0]"] ;
600 -> 602 ;
603 [label="X[13] <= -0.012\ngini = 0.499\nsamples = 38\nvalue = [18, 20]"] ;
527 -> 603 ;
604 [label="gini = 0.0\nsamples = 8\nvalue = [0, 8]"] ;
603 -> 604 ;
605 [label="X[13] <= 0.005\ngini = 0.48\nsamples = 30\nvalue = [18, 12]"] ;
603 -> 605 ;
606 [label="X[12] <= -0.052\ngini = 0.165\nsamples = 11\nvalue = [10, 1]"] ;
605 -> 606 ;
607 [label="gini = 0.0\nsamples = 1\nvalue = [0, 1]"] ;
606 -> 607 ;
608 [label="gini = 0.0\nsamples = 10\nvalue = [10, 0]"] ;
606 -> 608 ;
609 [label="X[16] <= -0.015\ngini = 0.488\nsamples = 19\nvalue = [8, 11]"] ;
605 -> 609 ;
610 [label="X[9] <= 0.043\ngini = 0.219\nsamples = 8\nvalue = [1, 7]"] ;
609 -> 610 ;
611 [label="gini = 0.0\nsamples = 7\nvalue = [0, 7]"] ;
610 -> 611 ;
612 [label="gini = 0.0\nsamples = 1\nvalue = [1, 0]"] ;
610 -> 612 ;
613 [label="X[8] <= 0.003\ngini = 0.463\nsamples = 11\nvalue = [7, 4]"] ;
609 -> 613 ;
614 [label="gini = 0.0\nsamples = 6\nvalue = [6, 0]"] ;
613 -> 614 ;
615 [label="X[17] <= -0.025\ngini = 0.32\nsamples = 5\nvalue = [1, 4]"] ;
613 -> 615 ;
616 [label="gini = 0.0\nsamples = 1\nvalue = [1, 0]"] ;
615 -> 616 ;
617 [label="gini = 0.0\nsamples = 4\nvalue = [0, 4]"] ;
615 -> 617 ;
618 [label="X[4] <= 0.019\ngini = 0.492\nsamples = 181\nvalue = [79, 102]"] ;
526 -> 618 ;
619 [label="X[10] <= -0.0\ngini = 0.412\nsamples = 31\nvalue = [22, 9]"] ;
618 -> 619 ;
620 [label="X[8] <= -0.022\ngini = 0.124\nsamples = 15\nvalue = [14, 1]"] ;
619 -> 620 ;
621 [label="gini = 0.0\nsamples = 1\nvalue = [0, 1]"] ;
620 -> 621 ;
622 [label="gini = 0.0\nsamples = 14\nvalue = [14, 0]"] ;
620 -> 622 ;
623 [label="X[10] <= 0.005\ngini = 0.5\nsamples = 16\nvalue = [8, 8]"] ;
619 -> 623 ;
624 [label="gini = 0.0\nsamples = 4\nvalue = [0, 4]"] ;
623 -> 624 ;
625 [label="X[6] <= -0.075\ngini = 0.444\nsamples = 12\nvalue = [8, 4]"] ;
623 -> 625 ;
626 [label="gini = 0.0\nsamples = 2\nvalue = [0, 2]"] ;
625 -> 626 ;
627 [label="X[3] <= -0.022\ngini = 0.32\nsamples = 10\nvalue = [8, 2]"] ;
625 -> 627 ;
628 [label="X[4] <= 0.017\ngini = 0.444\nsamples = 3\nvalue = [1, 2]"] ;
627 -> 628 ;
629 [label="gini = 0.0\nsamples = 2\nvalue = [0, 2]"] ;
628 -> 629 ;
630 [label="gini = 0.0\nsamples = 1\nvalue = [1, 0]"] ;
628 -> 630 ;
631 [label="gini = 0.0\nsamples = 7\nvalue = [7, 0]"] ;
627 -> 631 ;
632 [label="X[9] <= 0.054\ngini = 0.471\nsamples = 150\nvalue = [57, 93]"] ;
618 -> 632 ;
633 [label="X[6] <= -0.02\ngini = 0.486\nsamples = 137\nvalue = [57, 80]"] ;
632 -> 633 ;
634 [label="X[6] <= -0.046\ngini = 0.497\nsamples = 121\nvalue = [56, 65]"] ;
633 -> 634 ;
635 [label="X[0] <= -0.008\ngini = 0.342\nsamples = 32\nvalue = [7, 25]"] ;
634 -> 635 ;
636 [label="X[2] <= -0.014\ngini = 0.497\nsamples = 13\nvalue = [6, 7]"] ;
635 -> 636 ;
637 [label="gini = 0.0\nsamples = 6\nvalue = [0, 6]"] ;
636 -> 637 ;
638 [label="X[13] <= 0.044\ngini = 0.245\nsamples = 7\nvalue = [6, 1]"] ;
636 -> 638 ;
639 [label="gini = 0.0\nsamples = 6\nvalue = [6, 0]"] ;
638 -> 639 ;
640 [label="gini = 0.0\nsamples = 1\nvalue = [0, 1]"] ;
638 -> 640 ;
641 [label="X[10] <= -0.034\ngini = 0.1\nsamples = 19\nvalue = [1, 18]"] ;
635 -> 641 ;
642 [label="X[10] <= -0.05\ngini = 0.5\nsamples = 2\nvalue = [1, 1]"] ;
641 -> 642 ;
643 [label="gini = 0.0\nsamples = 1\nvalue = [0, 1]"] ;
642 -> 643 ;
644 [label="gini = 0.0\nsamples = 1\nvalue = [1, 0]"] ;
642 -> 644 ;
645 [label="gini = 0.0\nsamples = 17\nvalue = [0, 17]"] ;
641 -> 645 ;
646 [label="X[7] <= -0.023\ngini = 0.495\nsamples = 89\nvalue = [49, 40]"] ;
634 -> 646 ;
647 [label="X[3] <= 0.016\ngini = 0.18\nsamples = 10\nvalue = [1, 9]"] ;
646 -> 647 ;
648 [label="gini = 0.0\nsamples = 9\nvalue = [0, 9]"] ;
647 -> 648 ;
649 [label="gini = 0.0\nsamples = 1\nvalue = [1, 0]"] ;
647 -> 649 ;
650 [label="X[1] <= -0.007\ngini = 0.477\nsamples = 79\nvalue = [48, 31]"] ;
646 -> 650 ;
651 [label="X[1] <= -0.043\ngini = 0.485\nsamples = 29\nvalue = [12, 17]"] ;
650 -> 651 ;
652 [label="gini = 0.0\nsamples = 6\nvalue = [6, 0]"] ;
651 -> 652 ;
653 [label="X[12] <= 0.011\ngini = 0.386\nsamples = 23\nvalue = [6, 17]"] ;
651 -> 653 ;
654 [label="X[5] <= -0.04\ngini = 0.208\nsamples = 17\nvalue = [2, 15]"] ;
653 -> 654 ;
655 [label="X[11] <= 0.014\ngini = 0.444\nsamples = 3\nvalue = [2, 1]"] ;
654 -> 655 ;
656 [label="gini = 0.0\nsamples = 1\nvalue = [0, 1]"] ;
655 -> 656 ;
657 [label="gini = 0.0\nsamples = 2\nvalue = [2, 0]"] ;
655 -> 657 ;
658 [label="gini = 0.0\nsamples = 14\nvalue = [0, 14]"] ;
654 -> 658 ;
659 [label="X[4] <= 0.029\ngini = 0.444\nsamples = 6\nvalue = [4, 2]"] ;
653 -> 659 ;
660 [label="gini = 0.0\nsamples = 2\nvalue = [0, 2]"] ;
659 -> 660 ;
661 [label="gini = 0.0\nsamples = 4\nvalue = [4, 0]"] ;
659 -> 661 ;
662 [label="X[2] <= 0.068\ngini = 0.403\nsamples = 50\nvalue = [36, 14]"] ;
650 -> 662 ;
663 [label="X[7] <= 0.05\ngini = 0.359\nsamples = 47\nvalue = [36, 11]"] ;
662 -> 663 ;
664 [label="X[0] <= 0.018\ngini = 0.298\nsamples = 44\nvalue = [36, 8]"] ;
663 -> 664 ;
665 [label="X[2] <= -0.024\ngini = 0.165\nsamples = 33\nvalue = [30, 3]"] ;
664 -> 665 ;
666 [label="X[2] <= -0.026\ngini = 0.42\nsamples = 10\nvalue = [7, 3]"] ;
665 -> 666 ;
667 [label="gini = 0.0\nsamples = 7\nvalue = [7, 0]"] ;
666 -> 667 ;
668 [label="gini = 0.0\nsamples = 3\nvalue = [0, 3]"] ;
666 -> 668 ;
669 [label="gini = 0.0\nsamples = 23\nvalue = [23, 0]"] ;
665 -> 669 ;
670 [label="X[14] <= 0.014\ngini = 0.496\nsamples = 11\nvalue = [6, 5]"] ;
664 -> 670 ;
671 [label="X[16] <= -0.033\ngini = 0.408\nsamples = 7\nvalue = [2, 5]"] ;
670 -> 671 ;
672 [label="gini = 0.0\nsamples = 2\nvalue = [2, 0]"] ;
671 -> 672 ;
673 [label="gini = 0.0\nsamples = 5\nvalue = [0, 5]"] ;
671 -> 673 ;
674 [label="gini = 0.0\nsamples = 4\nvalue = [4, 0]"] ;
670 -> 674 ;
675 [label="gini = 0.0\nsamples = 3\nvalue = [0, 3]"] ;
663 -> 675 ;
676 [label="gini = 0.0\nsamples = 3\nvalue = [0, 3]"] ;
662 -> 676 ;
677 [label="X[17] <= -0.08\ngini = 0.117\nsamples = 16\nvalue = [1, 15]"] ;
633 -> 677 ;
678 [label="gini = 0.0\nsamples = 1\nvalue = [1, 0]"] ;
677 -> 678 ;
679 [label="gini = 0.0\nsamples = 15\nvalue = [0, 15]"] ;
677 -> 679 ;
680 [label="gini = 0.0\nsamples = 13\nvalue = [0, 13]"] ;
632 -> 680 ;
681 [label="X[17] <= -0.13\ngini = 0.499\nsamples = 1869\nvalue = [903, 966]"] ;
471 -> 681 ;
682 [label="X[17] <= -0.263\ngini = 0.18\nsamples = 10\nvalue = [9, 1]"] ;
681 -> 682 ;
683 [label="gini = 0.0\nsamples = 1\nvalue = [0, 1]"] ;
682 -> 683 ;
684 [label="gini = 0.0\nsamples = 9\nvalue = [9, 0]"] ;
682 -> 684 ;
685 [label="X[14] <= 0.003\ngini = 0.499\nsamples = 1859\nvalue = [894, 965]"] ;
681 -> 685 ;
686 [label="X[1] <= -0.071\ngini = 0.5\nsamples = 1035\nvalue = [526, 509]"] ;
685 -> 686 ;
687 [label="X[15] <= -0.084\ngini = 0.269\nsamples = 25\nvalue = [21, 4]"] ;
686 -> 687 ;
688 [label="X[3] <= -0.022\ngini = 0.375\nsamples = 4\nvalue = [1, 3]"] ;
687 -> 688 ;
689 [label="gini = 0.0\nsamples = 1\nvalue = [1, 0]"] ;
688 -> 689 ;
690 [label="gini = 0.0\nsamples = 3\nvalue = [0, 3]"] ;
688 -> 690 ;
691 [label="X[3] <= 0.138\ngini = 0.091\nsamples = 21\nvalue = [20, 1]"] ;
687 -> 691 ;
692 [label="gini = 0.0\nsamples = 20\nvalue = [20, 0]"] ;
691 -> 692 ;
693 [label="gini = 0.0\nsamples = 1\nvalue = [0, 1]"] ;
691 -> 693 ;
694 [label="X[14] <= -0.002\ngini = 0.5\nsamples = 1010\nvalue = [505, 505]"] ;
686 -> 694 ;
695 [label="X[17] <= -0.029\ngini = 0.499\nsamples = 876\nvalue = [422, 454]"] ;
694 -> 695 ;
696 [label="X[12] <= 0.026\ngini = 0.467\nsamples = 180\nvalue = [67, 113]"] ;
695 -> 696 ;
697 [label="X[14] <= -0.038\ngini = 0.437\nsamples = 149\nvalue = [48, 101]"] ;
696 -> 697 ;
698 [label="X[16] <= -0.043\ngini = 0.193\nsamples = 37\nvalue = [4, 33]"] ;
697 -> 698 ;
699 [label="X[10] <= 0.028\ngini = 0.444\nsamples = 3\nvalue = [2, 1]"] ;
698 -> 699 ;
700 [label="gini = 0.0\nsamples = 2\nvalue = [2, 0]"] ;
699 -> 700 ;
701 [label="gini = 0.0\nsamples = 1\nvalue = [0, 1]"] ;
699 -> 701 ;
702 [label="X[7] <= 0.055\ngini = 0.111\nsamples = 34\nvalue = [2, 32]"] ;
698 -> 702 ;
703 [label="X[0] <= 0.043\ngini = 0.061\nsamples = 32\nvalue = [1, 31]"] ;
702 -> 703 ;
704 [label="gini = 0.0\nsamples = 30\nvalue = [0, 30]"] ;
703 -> 704 ;
705 [label="X[13] <= -0.012\ngini = 0.5\nsamples = 2\nvalue = [1, 1]"] ;
703 -> 705 ;
706 [label="gini = 0.0\nsamples = 1\nvalue = [1, 0]"] ;
705 -> 706 ;
707 [label="gini = 0.0\nsamples = 1\nvalue = [0, 1]"] ;
705 -> 707 ;
708 [label="X[11] <= -0.007\ngini = 0.5\nsamples = 2\nvalue = [1, 1]"] ;
702 -> 708 ;
709 [label="gini = 0.0\nsamples = 1\nvalue = [0, 1]"] ;
708 -> 709 ;
710 [label="gini = 0.0\nsamples = 1\nvalue = [1, 0]"] ;
708 -> 710 ;
711 [label="X[1] <= -0.032\ngini = 0.477\nsamples = 112\nvalue = [44, 68]"] ;
697 -> 711 ;
712 [label="gini = 0.0\nsamples = 9\nvalue = [9, 0]"] ;
711 -> 712 ;
713 [label="X[0] <= -0.032\ngini = 0.449\nsamples = 103\nvalue = [35, 68]"] ;
711 -> 713 ;
714 [label="X[17] <= -0.033\ngini = 0.397\nsamples = 11\nvalue = [8, 3]"] ;
713 -> 714 ;
715 [label="X[12] <= -0.024\ngini = 0.198\nsamples = 9\nvalue = [8, 1]"] ;
714 -> 715 ;
716 [label="gini = 0.0\nsamples = 1\nvalue = [0, 1]"] ;
715 -> 716 ;
717 [label="gini = 0.0\nsamples = 8\nvalue = [8, 0]"] ;
715 -> 717 ;
718 [label="gini = 0.0\nsamples = 2\nvalue = [0, 2]"] ;
714 -> 718 ;
719 [label="X[14] <= -0.019\ngini = 0.415\nsamples = 92\nvalue = [27, 65]"] ;
713 -> 719 ;
720 [label="X[0] <= 0.032\ngini = 0.493\nsamples = 43\nvalue = [19, 24]"] ;
719 -> 720 ;
721 [label="X[0] <= 0.008\ngini = 0.451\nsamples = 35\nvalue = [12, 23]"] ;
720 -> 721 ;
722 [label="X[8] <= 0.014\ngini = 0.5\nsamples = 24\nvalue = [12, 12]"] ;
721 -> 722 ;
723 [label="X[9] <= 0.01\ngini = 0.465\nsamples = 19\nvalue = [7, 12]"] ;
722 -> 723 ;
724 [label="X[7] <= -0.027\ngini = 0.375\nsamples = 16\nvalue = [4, 12]"] ;
723 -> 724 ;
725 [label="gini = 0.0\nsamples = 2\nvalue = [2, 0]"] ;
724 -> 725 ;
726 [label="X[17] <= -0.029\ngini = 0.245\nsamples = 14\nvalue = [2, 12]"] ;
724 -> 726 ;
727 [label="X[13] <= 0.039\ngini = 0.142\nsamples = 13\nvalue = [1, 12]"] ;
726 -> 727 ;
728 [label="gini = 0.0\nsamples = 12\nvalue = [0, 12]"] ;
727 -> 728 ;
729 [label="gini = 0.0\nsamples = 1\nvalue = [1, 0]"] ;
727 -> 729 ;
730 [label="gini = 0.0\nsamples = 1\nvalue = [1, 0]"] ;
726 -> 730 ;
731 [label="gini = 0.0\nsamples = 3\nvalue = [3, 0]"] ;
723 -> 731 ;
732 [label="gini = 0.0\nsamples = 5\nvalue = [5, 0]"] ;
722 -> 732 ;
733 [label="gini = 0.0\nsamples = 11\nvalue = [0, 11]"] ;
721 -> 733 ;
734 [label="X[4] <= -0.091\ngini = 0.219\nsamples = 8\nvalue = [7, 1]"] ;
720 -> 734 ;
735 [label="gini = 0.0\nsamples = 1\nvalue = [0, 1]"] ;
734 -> 735 ;
736 [label="gini = 0.0\nsamples = 7\nvalue = [7, 0]"] ;
734 -> 736 ;
737 [label="X[17] <= -0.03\ngini = 0.273\nsamples = 49\nvalue = [8, 41]"] ;
719 -> 737 ;
738 [label="X[10] <= 0.048\ngini = 0.176\nsamples = 41\nvalue = [4, 37]"] ;
737 -> 738 ;
739 [label="X[11] <= -0.058\ngini = 0.139\nsamples = 40\nvalue = [3, 37]"] ;
738 -> 739 ;
740 [label="gini = 0.0\nsamples = 1\nvalue = [1, 0]"] ;
739 -> 740 ;
741 [label="X[10] <= -0.057\ngini = 0.097\nsamples = 39\nvalue = [2, 37]"] ;
739 -> 741 ;
742 [label="X[10] <= -0.067\ngini = 0.5\nsamples = 2\nvalue = [1, 1]"] ;
741 -> 742 ;
743 [label="gini = 0.0\nsamples = 1\nvalue = [0, 1]"] ;
742 -> 743 ;
744 [label="gini = 0.0\nsamples = 1\nvalue = [1, 0]"] ;
742 -> 744 ;
745 [label="X[12] <= 0.018\ngini = 0.053\nsamples = 37\nvalue = [1, 36]"] ;
741 -> 745 ;
746 [label="gini = 0.0\nsamples = 33\nvalue = [0, 33]"] ;
745 -> 746 ;
747 [label="X[9] <= -0.013\ngini = 0.375\nsamples = 4\nvalue = [1, 3]"] ;
745 -> 747 ;
748 [label="gini = 0.0\nsamples = 1\nvalue = [1, 0]"] ;
747 -> 748 ;
749 [label="gini = 0.0\nsamples = 3\nvalue = [0, 3]"] ;
747 -> 749 ;
750 [label="gini = 0.0\nsamples = 1\nvalue = [1, 0]"] ;
738 -> 750 ;
751 [label="X[16] <= 0.006\ngini = 0.5\nsamples = 8\nvalue = [4, 4]"] ;
737 -> 751 ;
752 [label="gini = 0.0\nsamples = 4\nvalue = [4, 0]"] ;
751 -> 752 ;
753 [label="gini = 0.0\nsamples = 4\nvalue = [0, 4]"] ;
751 -> 753 ;
754 [label="X[0] <= -0.001\ngini = 0.475\nsamples = 31\nvalue = [19, 12]"] ;
696 -> 754 ;
755 [label="X[13] <= -0.036\ngini = 0.153\nsamples = 12\nvalue = [11, 1]"] ;
754 -> 755 ;
756 [label="gini = 0.0\nsamples = 1\nvalue = [0, 1]"] ;
755 -> 756 ;
757 [label="gini = 0.0\nsamples = 11\nvalue = [11, 0]"] ;
755 -> 757 ;
758 [label="X[10] <= -0.005\ngini = 0.488\nsamples = 19\nvalue = [8, 11]"] ;
754 -> 758 ;
759 [label="X[12] <= 0.027\ngini = 0.18\nsamples = 10\nvalue = [1, 9]"] ;
758 -> 759 ;
760 [label="gini = 0.0\nsamples = 1\nvalue = [1, 0]"] ;
759 -> 760 ;
761 [label="gini = 0.0\nsamples = 9\nvalue = [0, 9]"] ;
759 -> 761 ;
762 [label="X[1] <= -0.014\ngini = 0.346\nsamples = 9\nvalue = [7, 2]"] ;
758 -> 762 ;
763 [label="gini = 0.0\nsamples = 2\nvalue = [0, 2]"] ;
762 -> 763 ;
764 [label="gini = 0.0\nsamples = 7\nvalue = [7, 0]"] ;
762 -> 764 ;
765 [label="X[17] <= -0.016\ngini = 0.5\nsamples = 696\nvalue = [355, 341]"] ;
695 -> 765 ;
766 [label="X[4] <= 0.022\ngini = 0.48\nsamples = 185\nvalue = [111, 74]"] ;
765 -> 766 ;
767 [label="X[2] <= -0.034\ngini = 0.495\nsamples = 145\nvalue = [80, 65]"] ;
766 -> 767 ;
768 [label="gini = 0.0\nsamples = 8\nvalue = [0, 8]"] ;
767 -> 768 ;
769 [label="X[13] <= -0.002\ngini = 0.486\nsamples = 137\nvalue = [80, 57]"] ;
767 -> 769 ;
770 [label="X[6] <= 0.075\ngini = 0.417\nsamples = 71\nvalue = [50, 21]"] ;
769 -> 770 ;
771 [label="X[4] <= 0.019\ngini = 0.389\nsamples = 68\nvalue = [50, 18]"] ;
770 -> 771 ;
772 [label="X[6] <= 0.016\ngini = 0.346\nsamples = 63\nvalue = [49, 14]"] ;
771 -> 772 ;
773 [label="X[4] <= -0.039\ngini = 0.161\nsamples = 34\nvalue = [31, 3]"] ;
772 -> 773 ;
774 [label="X[17] <= -0.019\ngini = 0.444\nsamples = 3\nvalue = [1, 2]"] ;
773 -> 774 ;
775 [label="gini = 0.0\nsamples = 2\nvalue = [0, 2]"] ;
774 -> 775 ;
776 [label="gini = 0.0\nsamples = 1\nvalue = [1, 0]"] ;
774 -> 776 ;
777 [label="X[2] <= 0.043\ngini = 0.062\nsamples = 31\nvalue = [30, 1]"] ;
773 -> 777 ;
778 [label="gini = 0.0\nsamples = 29\nvalue = [29, 0]"] ;
777 -> 778 ;
779 [label="X[14] <= -0.044\ngini = 0.5\nsamples = 2\nvalue = [1, 1]"] ;
777 -> 779 ;
780 [label="gini = 0.0\nsamples = 1\nvalue = [0, 1]"] ;
779 -> 780 ;
781 [label="gini = 0.0\nsamples = 1\nvalue = [1, 0]"] ;
779 -> 781 ;
782 [label="X[11] <= -0.008\ngini = 0.471\nsamples = 29\nvalue = [18, 11]"] ;
772 -> 782 ;
783 [label="X[6] <= 0.045\ngini = 0.346\nsamples = 9\nvalue = [2, 7]"] ;
782 -> 783 ;
784 [label="gini = 0.0\nsamples = 7\nvalue = [0, 7]"] ;
783 -> 784 ;
785 [label="gini = 0.0\nsamples = 2\nvalue = [2, 0]"] ;
783 -> 785 ;
786 [label="X[4] <= 0.012\ngini = 0.32\nsamples = 20\nvalue = [16, 4]"] ;
782 -> 786 ;
787 [label="X[14] <= -0.003\ngini = 0.198\nsamples = 18\nvalue = [16, 2]"] ;
786 -> 787 ;
788 [label="X[15] <= 0.017\ngini = 0.111\nsamples = 17\nvalue = [16, 1]"] ;
787 -> 788 ;
789 [label="gini = 0.0\nsamples = 16\nvalue = [16, 0]"] ;
788 -> 789 ;
790 [label="gini = 0.0\nsamples = 1\nvalue = [0, 1]"] ;
788 -> 790 ;
791 [label="gini = 0.0\nsamples = 1\nvalue = [0, 1]"] ;
787 -> 791 ;
792 [label="gini = 0.0\nsamples = 2\nvalue = [0, 2]"] ;
786 -> 792 ;
793 [label="X[16] <= 0.002\ngini = 0.32\nsamples = 5\nvalue = [1, 4]"] ;
771 -> 793 ;
794 [label="gini = 0.0\nsamples = 4\nvalue = [0, 4]"] ;
793 -> 794 ;
795 [label="gini = 0.0\nsamples = 1\nvalue = [1, 0]"] ;
793 -> 795 ;
796 [label="gini = 0.0\nsamples = 3\nvalue = [0, 3]"] ;
770 -> 796 ;
797 [label="X[6] <= 0.031\ngini = 0.496\nsamples = 66\nvalue = [30, 36]"] ;
769 -> 797 ;
798 [label="X[3] <= -0.001\ngini = 0.464\nsamples = 52\nvalue = [19, 33]"] ;
797 -> 798 ;
799 [label="X[4] <= 0.014\ngini = 0.48\nsamples = 20\nvalue = [12, 8]"] ;
798 -> 799 ;
800 [label="X[2] <= 0.015\ngini = 0.415\nsamples = 17\nvalue = [12, 5]"] ;
799 -> 800 ;
801 [label="X[14] <= -0.002\ngini = 0.153\nsamples = 12\nvalue = [11, 1]"] ;
800 -> 801 ;
802 [label="gini = 0.0\nsamples = 11\nvalue = [11, 0]"] ;
801 -> 802 ;
803 [label="gini = 0.0\nsamples = 1\nvalue = [0, 1]"] ;
801 -> 803 ;
804 [label="X[3] <= -0.014\ngini = 0.32\nsamples = 5\nvalue = [1, 4]"] ;
800 -> 804 ;
805 [label="gini = 0.0\nsamples = 4\nvalue = [0, 4]"] ;
804 -> 805 ;
806 [label="gini = 0.0\nsamples = 1\nvalue = [1, 0]"] ;
804 -> 806 ;
807 [label="gini = 0.0\nsamples = 3\nvalue = [0, 3]"] ;
799 -> 807 ;
808 [label="X[11] <= -0.034\ngini = 0.342\nsamples = 32\nvalue = [7, 25]"] ;
798 -> 808 ;
809 [label="gini = 0.0\nsamples = 3\nvalue = [3, 0]"] ;
808 -> 809 ;
810 [label="X[8] <= -0.028\ngini = 0.238\nsamples = 29\nvalue = [4, 25]"] ;
808 -> 810 ;
811 [label="X[14] <= -0.01\ngini = 0.375\nsamples = 4\nvalue = [3, 1]"] ;
810 -> 811 ;
812 [label="gini = 0.0\nsamples = 3\nvalue = [3, 0]"] ;
811 -> 812 ;
813 [label="gini = 0.0\nsamples = 1\nvalue = [0, 1]"] ;
811 -> 813 ;
814 [label="X[14] <= -0.007\ngini = 0.077\nsamples = 25\nvalue = [1, 24]"] ;
810 -> 814 ;
815 [label="gini = 0.0\nsamples = 20\nvalue = [0, 20]"] ;
814 -> 815 ;
816 [label="X[3] <= 0.014\ngini = 0.32\nsamples = 5\nvalue = [1, 4]"] ;
814 -> 816 ;
817 [label="gini = 0.0\nsamples = 1\nvalue = [1, 0]"] ;
816 -> 817 ;
818 [label="gini = 0.0\nsamples = 4\nvalue = [0, 4]"] ;
816 -> 818 ;
819 [label="X[17] <= -0.027\ngini = 0.337\nsamples = 14\nvalue = [11, 3]"] ;
797 -> 819 ;
820 [label="X[15] <= -0.024\ngini = 0.375\nsamples = 4\nvalue = [1, 3]"] ;
819 -> 820 ;
821 [label="gini = 0.0\nsamples = 1\nvalue = [1, 0]"] ;
820 -> 821 ;
822 [label="gini = 0.0\nsamples = 3\nvalue = [0, 3]"] ;
820 -> 822 ;
823 [label="gini = 0.0\nsamples = 10\nvalue = [10, 0]"] ;
819 -> 823 ;
824 [label="X[1] <= 0.035\ngini = 0.349\nsamples = 40\nvalue = [31, 9]"] ;
766 -> 824 ;
825 [label="X[15] <= 0.022\ngini = 0.272\nsamples = 37\nvalue = [31, 6]"] ;
824 -> 825 ;
826 [label="X[7] <= -0.042\ngini = 0.202\nsamples = 35\nvalue = [31, 4]"] ;
825 -> 826 ;
827 [label="X[14] <= -0.012\ngini = 0.444\nsamples = 3\nvalue = [1, 2]"] ;
826 -> 827 ;
828 [label="gini = 0.0\nsamples = 2\nvalue = [0, 2]"] ;
827 -> 828 ;
829 [label="gini = 0.0\nsamples = 1\nvalue = [1, 0]"] ;
827 -> 829 ;
830 [label="X[10] <= 0.068\ngini = 0.117\nsamples = 32\nvalue = [30, 2]"] ;
826 -> 830 ;
831 [label="X[16] <= -0.027\ngini = 0.062\nsamples = 31\nvalue = [30, 1]"] ;
830 -> 831 ;
832 [label="X[1] <= -0.011\ngini = 0.5\nsamples = 2\nvalue = [1, 1]"] ;
831 -> 832 ;
833 [label="gini = 0.0\nsamples = 1\nvalue = [1, 0]"] ;
832 -> 833 ;
834 [label="gini = 0.0\nsamples = 1\nvalue = [0, 1]"] ;
832 -> 834 ;
835 [label="gini = 0.0\nsamples = 29\nvalue = [29, 0]"] ;
831 -> 835 ;
836 [label="gini = 0.0\nsamples = 1\nvalue = [0, 1]"] ;
830 -> 836 ;
837 [label="gini = 0.0\nsamples = 2\nvalue = [0, 2]"] ;
825 -> 837 ;
838 [label="gini = 0.0\nsamples = 3\nvalue = [0, 3]"] ;
824 -> 838 ;
839 [label="X[9] <= -0.067\ngini = 0.499\nsamples = 511\nvalue = [244, 267]"] ;
765 -> 839 ;
840 [label="X[15] <= 0.032\ngini = 0.153\nsamples = 12\nvalue = [11, 1]"] ;
839 -> 840 ;
841 [label="gini = 0.0\nsamples = 11\nvalue = [11, 0]"] ;
840 -> 841 ;
842 [label="gini = 0.0\nsamples = 1\nvalue = [0, 1]"] ;
840 -> 842 ;
843 [label="X[15] <= -0.028\ngini = 0.498\nsamples = 499\nvalue = [233, 266]"] ;
839 -> 843 ;
844 [label="X[3] <= -0.035\ngini = 0.475\nsamples = 72\nvalue = [44, 28]"] ;
843 -> 844 ;
845 [label="gini = 0.0\nsamples = 5\nvalue = [0, 5]"] ;
844 -> 845 ;
846 [label="X[7] <= 0.021\ngini = 0.451\nsamples = 67\nvalue = [44, 23]"] ;
844 -> 846 ;
847 [label="X[8] <= -0.013\ngini = 0.491\nsamples = 51\nvalue = [29, 22]"] ;
846 -> 847 ;
848 [label="X[2] <= -0.065\ngini = 0.26\nsamples = 13\nvalue = [11, 2]"] ;
847 -> 848 ;
849 [label="gini = 0.0\nsamples = 1\nvalue = [0, 1]"] ;
848 -> 849 ;
850 [label="X[12] <= 0.055\ngini = 0.153\nsamples = 12\nvalue = [11, 1]"] ;
848 -> 850 ;
851 [label="gini = 0.0\nsamples = 11\nvalue = [11, 0]"] ;
850 -> 851 ;
852 [label="gini = 0.0\nsamples = 1\nvalue = [0, 1]"] ;
850 -> 852 ;
853 [label="X[17] <= -0.005\ngini = 0.499\nsamples = 38\nvalue = [18, 20]"] ;
847 -> 853 ;
854 [label="X[1] <= 0.06\ngini = 0.245\nsamples = 14\nvalue = [2, 12]"] ;
853 -> 854 ;
855 [label="X[5] <= -0.015\ngini = 0.142\nsamples = 13\nvalue = [1, 12]"] ;
854 -> 855 ;
856 [label="gini = 0.0\nsamples = 12\nvalue = [0, 12]"] ;
855 -> 856 ;
857 [label="gini = 0.0\nsamples = 1\nvalue = [1, 0]"] ;
855 -> 857 ;
858 [label="gini = 0.0\nsamples = 1\nvalue = [1, 0]"] ;
854 -> 858 ;
859 [label="X[2] <= 0.061\ngini = 0.444\nsamples = 24\nvalue = [16, 8]"] ;
853 -> 859 ;
860 [label="X[14] <= -0.019\ngini = 0.397\nsamples = 22\nvalue = [16, 6]"] ;
859 -> 860 ;
861 [label="X[3] <= -0.021\ngini = 0.153\nsamples = 12\nvalue = [11, 1]"] ;
860 -> 861 ;
862 [label="X[9] <= 0.005\ngini = 0.5\nsamples = 2\nvalue = [1, 1]"] ;
861 -> 862 ;
863 [label="gini = 0.0\nsamples = 1\nvalue = [1, 0]"] ;
862 -> 863 ;
864 [label="gini = 0.0\nsamples = 1\nvalue = [0, 1]"] ;
862 -> 864 ;
865 [label="gini = 0.0\nsamples = 10\nvalue = [10, 0]"] ;
861 -> 865 ;
866 [label="X[16] <= -0.014\ngini = 0.5\nsamples = 10\nvalue = [5, 5]"] ;
860 -> 866 ;
867 [label="gini = 0.0\nsamples = 4\nvalue = [0, 4]"] ;
866 -> 867 ;
868 [label="X[12] <= 0.038\ngini = 0.278\nsamples = 6\nvalue = [5, 1]"] ;
866 -> 868 ;
869 [label="gini = 0.0\nsamples = 5\nvalue = [5, 0]"] ;
868 -> 869 ;
870 [label="gini = 0.0\nsamples = 1\nvalue = [0, 1]"] ;
868 -> 870 ;
871 [label="gini = 0.0\nsamples = 2\nvalue = [0, 2]"] ;
859 -> 871 ;
872 [label="X[15] <= -0.106\ngini = 0.117\nsamples = 16\nvalue = [15, 1]"] ;
846 -> 872 ;
873 [label="gini = 0.0\nsamples = 1\nvalue = [0, 1]"] ;
872 -> 873 ;
874 [label="gini = 0.0\nsamples = 15\nvalue = [15, 0]"] ;
872 -> 874 ;
875 [label="X[7] <= 0.064\ngini = 0.493\nsamples = 427\nvalue = [189, 238]"] ;
843 -> 875 ;
876 [label="X[13] <= 0.053\ngini = 0.496\nsamples = 416\nvalue = [189, 227]"] ;
875 -> 876 ;
877 [label="X[6] <= -0.005\ngini = 0.493\nsamples = 398\nvalue = [175, 223]"] ;
876 -> 877 ;
878 [label="X[1] <= 0.025\ngini = 0.492\nsamples = 87\nvalue = [49, 38]"] ;
877 -> 878 ;
879 [label="X[12] <= -0.006\ngini = 0.469\nsamples = 72\nvalue = [45, 27]"] ;
878 -> 879 ;
880 [label="X[3] <= 0.014\ngini = 0.488\nsamples = 26\nvalue = [11, 15]"] ;
879 -> 880 ;
881 [label="X[6] <= -0.016\ngini = 0.408\nsamples = 21\nvalue = [6, 15]"] ;
880 -> 881 ;
882 [label="gini = 0.0\nsamples = 2\nvalue = [2, 0]"] ;
881 -> 882 ;
883 [label="X[7] <= -0.001\ngini = 0.332\nsamples = 19\nvalue = [4, 15]"] ;
881 -> 883 ;
884 [label="X[10] <= -0.005\ngini = 0.48\nsamples = 10\nvalue = [4, 6]"] ;
883 -> 884 ;
885 [label="gini = 0.0\nsamples = 5\nvalue = [0, 5]"] ;
884 -> 885 ;
886 [label="X[10] <= 0.026\ngini = 0.32\nsamples = 5\nvalue = [4, 1]"] ;
884 -> 886 ;
887 [label="gini = 0.0\nsamples = 4\nvalue = [4, 0]"] ;
886 -> 887 ;
888 [label="gini = 0.0\nsamples = 1\nvalue = [0, 1]"] ;
886 -> 888 ;
889 [label="gini = 0.0\nsamples = 9\nvalue = [0, 9]"] ;
883 -> 889 ;
890 [label="gini = 0.0\nsamples = 5\nvalue = [5, 0]"] ;
880 -> 890 ;
891 [label="X[8] <= 0.034\ngini = 0.386\nsamples = 46\nvalue = [34, 12]"] ;
879 -> 891 ;
892 [label="X[16] <= -0.003\ngini = 0.295\nsamples = 39\nvalue = [32, 7]"] ;
891 -> 892 ;
893 [label="gini = 0.0\nsamples = 15\nvalue = [15, 0]"] ;
892 -> 893 ;
894 [label="X[9] <= -0.008\ngini = 0.413\nsamples = 24\nvalue = [17, 7]"] ;
892 -> 894 ;
895 [label="X[6] <= -0.013\ngini = 0.444\nsamples = 6\nvalue = [2, 4]"] ;
894 -> 895 ;
896 [label="gini = 0.0\nsamples = 2\nvalue = [2, 0]"] ;
895 -> 896 ;
897 [label="gini = 0.0\nsamples = 4\nvalue = [0, 4]"] ;
895 -> 897 ;
898 [label="X[9] <= 0.02\ngini = 0.278\nsamples = 18\nvalue = [15, 3]"] ;
894 -> 898 ;
899 [label="gini = 0.0\nsamples = 12\nvalue = [12, 0]"] ;
898 -> 899 ;
900 [label="X[1] <= -0.001\ngini = 0.5\nsamples = 6\nvalue = [3, 3]"] ;
898 -> 900 ;
901 [label="X[3] <= -0.005\ngini = 0.375\nsamples = 4\nvalue = [3, 1]"] ;
900 -> 901 ;
902 [label="gini = 0.0\nsamples = 3\nvalue = [3, 0]"] ;
901 -> 902 ;
903 [label="gini = 0.0\nsamples = 1\nvalue = [0, 1]"] ;
901 -> 903 ;
904 [label="gini = 0.0\nsamples = 2\nvalue = [0, 2]"] ;
900 -> 904 ;
905 [label="X[14] <= -0.012\ngini = 0.408\nsamples = 7\nvalue = [2, 5]"] ;
891 -> 905 ;
906 [label="gini = 0.0\nsamples = 5\nvalue = [0, 5]"] ;
905 -> 906 ;
907 [label="gini = 0.0\nsamples = 2\nvalue = [2, 0]"] ;
905 -> 907 ;
908 [label="X[13] <= 0.018\ngini = 0.391\nsamples = 15\nvalue = [4, 11]"] ;
878 -> 908 ;
909 [label="X[13] <= -0.034\ngini = 0.153\nsamples = 12\nvalue = [1, 11]"] ;
908 -> 909 ;
910 [label="gini = 0.0\nsamples = 1\nvalue = [1, 0]"] ;
909 -> 910 ;
911 [label="gini = 0.0\nsamples = 11\nvalue = [0, 11]"] ;
909 -> 911 ;
912 [label="gini = 0.0\nsamples = 3\nvalue = [3, 0]"] ;
908 -> 912 ;
913 [label="X[5] <= -0.015\ngini = 0.482\nsamples = 311\nvalue = [126, 185]"] ;
877 -> 913 ;
914 [label="X[11] <= 0.018\ngini = 0.467\nsamples = 267\nvalue = [99, 168]"] ;
913 -> 914 ;
915 [label="X[4] <= 0.027\ngini = 0.435\nsamples = 213\nvalue = [68, 145]"] ;
914 -> 915 ;
916 [label="X[7] <= 0.056\ngini = 0.383\nsamples = 174\nvalue = [45, 129]"] ;
915 -> 916 ;
917 [label="X[6] <= 0.102\ngini = 0.371\nsamples = 171\nvalue = [42, 129]"] ;
916 -> 917 ;
918 [label="X[12] <= -0.023\ngini = 0.361\nsamples = 169\nvalue = [40, 129]"] ;
917 -> 918 ;
919 [label="X[2] <= -0.053\ngini = 0.128\nsamples = 29\nvalue = [2, 27]"] ;
918 -> 919 ;
920 [label="X[3] <= -0.002\ngini = 0.444\nsamples = 3\nvalue = [2, 1]"] ;
919 -> 920 ;
921 [label="gini = 0.0\nsamples = 1\nvalue = [0, 1]"] ;
920 -> 921 ;
922 [label="gini = 0.0\nsamples = 2\nvalue = [2, 0]"] ;
920 -> 922 ;
923 [label="gini = 0.0\nsamples = 26\nvalue = [0, 26]"] ;
919 -> 923 ;
924 [label="X[12] <= -0.016\ngini = 0.396\nsamples = 140\nvalue = [38, 102]"] ;
918 -> 924 ;
925 [label="X[2] <= 0.009\ngini = 0.459\nsamples = 14\nvalue = [9, 5]"] ;
924 -> 925 ;
926 [label="X[7] <= 0.011\ngini = 0.298\nsamples = 11\nvalue = [9, 2]"] ;
925 -> 926 ;
927 [label="gini = 0.0\nsamples = 9\nvalue = [9, 0]"] ;
926 -> 927 ;
928 [label="gini = 0.0\nsamples = 2\nvalue = [0, 2]"] ;
926 -> 928 ;
929 [label="gini = 0.0\nsamples = 3\nvalue = [0, 3]"] ;
925 -> 929 ;
930 [label="X[1] <= -0.026\ngini = 0.354\nsamples = 126\nvalue = [29, 97]"] ;
924 -> 930 ;
931 [label="gini = 0.0\nsamples = 17\nvalue = [0, 17]"] ;
930 -> 931 ;
932 [label="X[15] <= -0.012\ngini = 0.391\nsamples = 109\nvalue = [29, 80]"] ;
930 -> 932 ;
933 [label="X[5] <= -0.032\ngini = 0.147\nsamples = 25\nvalue = [2, 23]"] ;
932 -> 933 ;
934 [label="X[3] <= -0.005\ngini = 0.408\nsamples = 7\nvalue = [2, 5]"] ;
933 -> 934 ;
935 [label="gini = 0.0\nsamples = 2\nvalue = [2, 0]"] ;
934 -> 935 ;
936 [label="gini = 0.0\nsamples = 5\nvalue = [0, 5]"] ;
934 -> 936 ;
937 [label="gini = 0.0\nsamples = 18\nvalue = [0, 18]"] ;
933 -> 937 ;
938 [label="X[6] <= 0.014\ngini = 0.436\nsamples = 84\nvalue = [27, 57]"] ;
932 -> 938 ;
939 [label="X[14] <= -0.012\ngini = 0.494\nsamples = 38\nvalue = [17, 21]"] ;
938 -> 939 ;
940 [label="X[1] <= 0.013\ngini = 0.463\nsamples = 22\nvalue = [14, 8]"] ;
939 -> 940 ;
941 [label="gini = 0.0\nsamples = 9\nvalue = [9, 0]"] ;
940 -> 941 ;
942 [label="X[14] <= -0.038\ngini = 0.473\nsamples = 13\nvalue = [5, 8]"] ;
940 -> 942 ;
943 [label="gini = 0.0\nsamples = 3\nvalue = [3, 0]"] ;
942 -> 943 ;
944 [label="X[9] <= -0.038\ngini = 0.32\nsamples = 10\nvalue = [2, 8]"] ;
942 -> 944 ;
945 [label="X[14] <= -0.029\ngini = 0.444\nsamples = 3\nvalue = [2, 1]"] ;
944 -> 945 ;
946 [label="gini = 0.0\nsamples = 1\nvalue = [0, 1]"] ;
945 -> 946 ;
947 [label="gini = 0.0\nsamples = 2\nvalue = [2, 0]"] ;
945 -> 947 ;
948 [label="gini = 0.0\nsamples = 7\nvalue = [0, 7]"] ;
944 -> 948 ;
949 [label="X[0] <= -0.009\ngini = 0.305\nsamples = 16\nvalue = [3, 13]"] ;
939 -> 949 ;
950 [label="X[0] <= -0.028\ngini = 0.5\nsamples = 6\nvalue = [3, 3]"] ;
949 -> 950 ;
951 [label="gini = 0.0\nsamples = 3\nvalue = [0, 3]"] ;
950 -> 951 ;
952 [label="gini = 0.0\nsamples = 3\nvalue = [3, 0]"] ;
950 -> 952 ;
953 [label="gini = 0.0\nsamples = 10\nvalue = [0, 10]"] ;
949 -> 953 ;
954 [label="X[0] <= 0.041\ngini = 0.34\nsamples = 46\nvalue = [10, 36]"] ;
938 -> 954 ;
955 [label="X[8] <= 0.034\ngini = 0.298\nsamples = 44\nvalue = [8, 36]"] ;
954 -> 955 ;
956 [label="X[8] <= -0.043\ngini = 0.202\nsamples = 35\nvalue = [4, 31]"] ;
955 -> 956 ;
957 [label="gini = 0.0\nsamples = 1\nvalue = [1, 0]"] ;
956 -> 957 ;
958 [label="X[6] <= 0.078\ngini = 0.161\nsamples = 34\nvalue = [3, 31]"] ;
956 -> 958 ;
959 [label="X[7] <= -0.041\ngini = 0.114\nsamples = 33\nvalue = [2, 31]"] ;
958 -> 959 ;
960 [label="X[10] <= 0.002\ngini = 0.5\nsamples = 2\nvalue = [1, 1]"] ;
959 -> 960 ;
961 [label="gini = 0.0\nsamples = 1\nvalue = [1, 0]"] ;
960 -> 961 ;
962 [label="gini = 0.0\nsamples = 1\nvalue = [0, 1]"] ;
960 -> 962 ;
963 [label="X[6] <= 0.016\ngini = 0.062\nsamples = 31\nvalue = [1, 30]"] ;
959 -> 963 ;
964 [label="X[6] <= 0.016\ngini = 0.375\nsamples = 4\nvalue = [1, 3]"] ;
963 -> 964 ;
965 [label="gini = 0.0\nsamples = 3\nvalue = [0, 3]"] ;
964 -> 965 ;
966 [label="gini = 0.0\nsamples = 1\nvalue = [1, 0]"] ;
964 -> 966 ;
967 [label="gini = 0.0\nsamples = 27\nvalue = [0, 27]"] ;
963 -> 967 ;
968 [label="gini = 0.0\nsamples = 1\nvalue = [1, 0]"] ;
958 -> 968 ;
969 [label="X[4] <= -0.006\ngini = 0.494\nsamples = 9\nvalue = [4, 5]"] ;
955 -> 969 ;
970 [label="gini = 0.0\nsamples = 5\nvalue = [0, 5]"] ;
969 -> 970 ;
971 [label="gini = 0.0\nsamples = 4\nvalue = [4, 0]"] ;
969 -> 971 ;
972 [label="gini = 0.0\nsamples = 2\nvalue = [2, 0]"] ;
954 -> 972 ;
973 [label="gini = 0.0\nsamples = 2\nvalue = [2, 0]"] ;
917 -> 973 ;
974 [label="gini = 0.0\nsamples = 3\nvalue = [3, 0]"] ;
916 -> 974 ;
975 [label="X[12] <= 0.017\ngini = 0.484\nsamples = 39\nvalue = [23, 16]"] ;
915 -> 975 ;
976 [label="X[16] <= -0.044\ngini = 0.4\nsamples = 29\nvalue = [21, 8]"] ;
975 -> 976 ;
977 [label="gini = 0.0\nsamples = 3\nvalue = [0, 3]"] ;
976 -> 977 ;
978 [label="X[2] <= -0.036\ngini = 0.311\nsamples = 26\nvalue = [21, 5]"] ;
976 -> 978 ;
979 [label="gini = 0.0\nsamples = 3\nvalue = [0, 3]"] ;
978 -> 979 ;
980 [label="X[3] <= 0.027\ngini = 0.159\nsamples = 23\nvalue = [21, 2]"] ;
978 -> 980 ;
981 [label="gini = 0.0\nsamples = 20\nvalue = [20, 0]"] ;
980 -> 981 ;
982 [label="X[9] <= -0.016\ngini = 0.444\nsamples = 3\nvalue = [1, 2]"] ;
980 -> 982 ;
983 [label="gini = 0.0\nsamples = 1\nvalue = [1, 0]"] ;
982 -> 983 ;
984 [label="gini = 0.0\nsamples = 2\nvalue = [0, 2]"] ;
982 -> 984 ;
985 [label="X[6] <= -0.0\ngini = 0.32\nsamples = 10\nvalue = [2, 8]"] ;
975 -> 985 ;
986 [label="gini = 0.0\nsamples = 2\nvalue = [2, 0]"] ;
985 -> 986 ;
987 [label="gini = 0.0\nsamples = 8\nvalue = [0, 8]"] ;
985 -> 987 ;
988 [label="X[10] <= 0.011\ngini = 0.489\nsamples = 54\nvalue = [31, 23]"] ;
914 -> 988 ;
989 [label="X[16] <= -0.036\ngini = 0.342\nsamples = 32\nvalue = [25, 7]"] ;
988 -> 989 ;
990 [label="gini = 0.0\nsamples = 4\nvalue = [0, 4]"] ;
989 -> 990 ;
991 [label="X[17] <= -0.015\ngini = 0.191\nsamples = 28\nvalue = [25, 3]"] ;
989 -> 991 ;
992 [label="gini = 0.0\nsamples = 1\nvalue = [0, 1]"] ;
991 -> 992 ;
993 [label="X[3] <= 0.038\ngini = 0.137\nsamples = 27\nvalue = [25, 2]"] ;
991 -> 993 ;
994 [label="X[4] <= 0.048\ngini = 0.074\nsamples = 26\nvalue = [25, 1]"] ;
993 -> 994 ;
995 [label="gini = 0.0\nsamples = 25\nvalue = [25, 0]"] ;
994 -> 995 ;
996 [label="gini = 0.0\nsamples = 1\nvalue = [0, 1]"] ;
994 -> 996 ;
997 [label="gini = 0.0\nsamples = 1\nvalue = [0, 1]"] ;
993 -> 997 ;
998 [label="X[15] <= -0.001\ngini = 0.397\nsamples = 22\nvalue = [6, 16]"] ;
988 -> 998 ;
999 [label="gini = 0.0\nsamples = 4\nvalue = [4, 0]"] ;
998 -> 999 ;
1000 [label="X[3] <= -0.013\ngini = 0.198\nsamples = 18\nvalue = [2, 16]"] ;
998 -> 1000 ;
1001 [label="X[0] <= 0.039\ngini = 0.48\nsamples = 5\nvalue = [2, 3]"] ;
1000 -> 1001 ;
1002 [label="gini = 0.0\nsamples = 3\nvalue = [0, 3]"] ;
1001 -> 1002 ;
1003 [label="gini = 0.0\nsamples = 2\nvalue = [2, 0]"] ;
1001 -> 1003 ;
1004 [label="gini = 0.0\nsamples = 13\nvalue = [0, 13]"] ;
1000 -> 1004 ;
1005 [label="X[5] <= -0.014\ngini = 0.474\nsamples = 44\nvalue = [27, 17]"] ;
913 -> 1005 ;
1006 [label="X[4] <= -0.018\ngini = 0.111\nsamples = 17\nvalue = [16, 1]"] ;
1005 -> 1006 ;
1007 [label="X[10] <= -0.021\ngini = 0.5\nsamples = 2\nvalue = [1, 1]"] ;
1006 -> 1007 ;
1008 [label="gini = 0.0\nsamples = 1\nvalue = [0, 1]"] ;
1007 -> 1008 ;
1009 [label="gini = 0.0\nsamples = 1\nvalue = [1, 0]"] ;
1007 -> 1009 ;
1010 [label="gini = 0.0\nsamples = 15\nvalue = [15, 0]"] ;
1006 -> 1010 ;
1011 [label="X[4] <= 0.002\ngini = 0.483\nsamples = 27\nvalue = [11, 16]"] ;
1005 -> 1011 ;
1012 [label="X[2] <= -0.01\ngini = 0.444\nsamples = 15\nvalue = [10, 5]"] ;
1011 -> 1012 ;
1013 [label="X[0] <= 0.016\ngini = 0.32\nsamples = 5\nvalue = [1, 4]"] ;
1012 -> 1013 ;
1014 [label="gini = 0.0\nsamples = 4\nvalue = [0, 4]"] ;
1013 -> 1014 ;
1015 [label="gini = 0.0\nsamples = 1\nvalue = [1, 0]"] ;
1013 -> 1015 ;
1016 [label="X[14] <= -0.057\ngini = 0.18\nsamples = 10\nvalue = [9, 1]"] ;
1012 -> 1016 ;
1017 [label="gini = 0.0\nsamples = 1\nvalue = [0, 1]"] ;
1016 -> 1017 ;
1018 [label="gini = 0.0\nsamples = 9\nvalue = [9, 0]"] ;
1016 -> 1018 ;
1019 [label="X[0] <= -0.041\ngini = 0.153\nsamples = 12\nvalue = [1, 11]"] ;
1011 -> 1019 ;
1020 [label="gini = 0.0\nsamples = 1\nvalue = [1, 0]"] ;
1019 -> 1020 ;
1021 [label="gini = 0.0\nsamples = 11\nvalue = [0, 11]"] ;
1019 -> 1021 ;
1022 [label="X[4] <= -0.01\ngini = 0.346\nsamples = 18\nvalue = [14, 4]"] ;
876 -> 1022 ;
1023 [label="X[14] <= -0.013\ngini = 0.375\nsamples = 4\nvalue = [1, 3]"] ;
1022 -> 1023 ;
1024 [label="gini = 0.0\nsamples = 3\nvalue = [0, 3]"] ;
1023 -> 1024 ;
1025 [label="gini = 0.0\nsamples = 1\nvalue = [1, 0]"] ;
1023 -> 1025 ;
1026 [label="X[9] <= 0.051\ngini = 0.133\nsamples = 14\nvalue = [13, 1]"] ;
1022 -> 1026 ;
1027 [label="gini = 0.0\nsamples = 13\nvalue = [13, 0]"] ;
1026 -> 1027 ;
1028 [label="gini = 0.0\nsamples = 1\nvalue = [0, 1]"] ;
1026 -> 1028 ;
1029 [label="gini = 0.0\nsamples = 11\nvalue = [0, 11]"] ;
875 -> 1029 ;
1030 [label="X[8] <= 0.029\ngini = 0.471\nsamples = 134\nvalue = [83, 51]"] ;
694 -> 1030 ;
1031 [label="X[11] <= -0.008\ngini = 0.44\nsamples = 113\nvalue = [76, 37]"] ;
1030 -> 1031 ;
1032 [label="X[17] <= -0.004\ngini = 0.5\nsamples = 34\nvalue = [17, 17]"] ;
1031 -> 1032 ;
1033 [label="X[16] <= 0.007\ngini = 0.454\nsamples = 23\nvalue = [8, 15]"] ;
1032 -> 1033 ;
1034 [label="X[17] <= -0.058\ngini = 0.231\nsamples = 15\nvalue = [2, 13]"] ;
1033 -> 1034 ;
1035 [label="gini = 0.0\nsamples = 2\nvalue = [2, 0]"] ;
1034 -> 1035 ;
1036 [label="gini = 0.0\nsamples = 13\nvalue = [0, 13]"] ;
1034 -> 1036 ;
1037 [label="X[4] <= -0.046\ngini = 0.375\nsamples = 8\nvalue = [6, 2]"] ;
1033 -> 1037 ;
1038 [label="gini = 0.0\nsamples = 1\nvalue = [0, 1]"] ;
1037 -> 1038 ;
1039 [label="X[11] <= -0.15\ngini = 0.245\nsamples = 7\nvalue = [6, 1]"] ;
1037 -> 1039 ;
1040 [label="gini = 0.0\nsamples = 1\nvalue = [0, 1]"] ;
1039 -> 1040 ;
1041 [label="gini = 0.0\nsamples = 6\nvalue = [6, 0]"] ;
1039 -> 1041 ;
1042 [label="X[4] <= 0.001\ngini = 0.298\nsamples = 11\nvalue = [9, 2]"] ;
1032 -> 1042 ;
1043 [label="X[7] <= -0.017\ngini = 0.444\nsamples = 3\nvalue = [1, 2]"] ;
1042 -> 1043 ;
1044 [label="gini = 0.0\nsamples = 1\nvalue = [1, 0]"] ;
1043 -> 1044 ;
1045 [label="gini = 0.0\nsamples = 2\nvalue = [0, 2]"] ;
1043 -> 1045 ;
1046 [label="gini = 0.0\nsamples = 8\nvalue = [8, 0]"] ;
1042 -> 1046 ;
1047 [label="X[6] <= -0.006\ngini = 0.378\nsamples = 79\nvalue = [59, 20]"] ;
1031 -> 1047 ;
1048 [label="X[7] <= 0.003\ngini = 0.49\nsamples = 14\nvalue = [6, 8]"] ;
1047 -> 1048 ;
1049 [label="X[9] <= -0.0\ngini = 0.444\nsamples = 9\nvalue = [6, 3]"] ;
1048 -> 1049 ;
1050 [label="gini = 0.0\nsamples = 5\nvalue = [5, 0]"] ;
1049 -> 1050 ;
1051 [label="X[0] <= 0.008\ngini = 0.375\nsamples = 4\nvalue = [1, 3]"] ;
1049 -> 1051 ;
1052 [label="gini = 0.0\nsamples = 3\nvalue = [0, 3]"] ;
1051 -> 1052 ;
1053 [label="gini = 0.0\nsamples = 1\nvalue = [1, 0]"] ;
1051 -> 1053 ;
1054 [label="gini = 0.0\nsamples = 5\nvalue = [0, 5]"] ;
1048 -> 1054 ;
1055 [label="X[9] <= -0.042\ngini = 0.301\nsamples = 65\nvalue = [53, 12]"] ;
1047 -> 1055 ;
1056 [label="X[13] <= 0.016\ngini = 0.32\nsamples = 5\nvalue = [1, 4]"] ;
1055 -> 1056 ;
1057 [label="gini = 0.0\nsamples = 4\nvalue = [0, 4]"] ;
1056 -> 1057 ;
1058 [label="gini = 0.0\nsamples = 1\nvalue = [1, 0]"] ;
1056 -> 1058 ;
1059 [label="X[4] <= -0.041\ngini = 0.231\nsamples = 60\nvalue = [52, 8]"] ;
1055 -> 1059 ;
1060 [label="X[6] <= 0.042\ngini = 0.375\nsamples = 4\nvalue = [1, 3]"] ;
1059 -> 1060 ;
1061 [label="gini = 0.0\nsamples = 3\nvalue = [0, 3]"] ;
1060 -> 1061 ;
1062 [label="gini = 0.0\nsamples = 1\nvalue = [1, 0]"] ;
1060 -> 1062 ;
1063 [label="X[9] <= 0.052\ngini = 0.163\nsamples = 56\nvalue = [51, 5]"] ;
1059 -> 1063 ;
1064 [label="X[14] <= 0.003\ngini = 0.135\nsamples = 55\nvalue = [51, 4]"] ;
1063 -> 1064 ;
1065 [label="X[7] <= 0.114\ngini = 0.105\nsamples = 54\nvalue = [51, 3]"] ;
1064 -> 1065 ;
1066 [label="X[8] <= -0.041\ngini = 0.073\nsamples = 53\nvalue = [51, 2]"] ;
1065 -> 1066 ;
1067 [label="X[1] <= -0.003\ngini = 0.444\nsamples = 3\nvalue = [2, 1]"] ;
1066 -> 1067 ;
1068 [label="gini = 0.0\nsamples = 1\nvalue = [0, 1]"] ;
1067 -> 1068 ;
1069 [label="gini = 0.0\nsamples = 2\nvalue = [2, 0]"] ;
1067 -> 1069 ;
1070 [label="X[7] <= 0.056\ngini = 0.039\nsamples = 50\nvalue = [49, 1]"] ;
1066 -> 1070 ;
1071 [label="gini = 0.0\nsamples = 46\nvalue = [46, 0]"] ;
1070 -> 1071 ;
1072 [label="X[0] <= -0.007\ngini = 0.375\nsamples = 4\nvalue = [3, 1]"] ;
1070 -> 1072 ;
1073 [label="gini = 0.0\nsamples = 3\nvalue = [3, 0]"] ;
1072 -> 1073 ;
1074 [label="gini = 0.0\nsamples = 1\nvalue = [0, 1]"] ;
1072 -> 1074 ;
1075 [label="gini = 0.0\nsamples = 1\nvalue = [0, 1]"] ;
1065 -> 1075 ;
1076 [label="gini = 0.0\nsamples = 1\nvalue = [0, 1]"] ;
1064 -> 1076 ;
1077 [label="gini = 0.0\nsamples = 1\nvalue = [0, 1]"] ;
1063 -> 1077 ;
1078 [label="X[15] <= -0.005\ngini = 0.444\nsamples = 21\nvalue = [7, 14]"] ;
1030 -> 1078 ;
1079 [label="gini = 0.0\nsamples = 4\nvalue = [4, 0]"] ;
1078 -> 1079 ;
1080 [label="X[4] <= -0.0\ngini = 0.291\nsamples = 17\nvalue = [3, 14]"] ;
1078 -> 1080 ;
1081 [label="X[7] <= -0.016\ngini = 0.49\nsamples = 7\nvalue = [3, 4]"] ;
1080 -> 1081 ;
1082 [label="X[9] <= 0.032\ngini = 0.375\nsamples = 4\nvalue = [3, 1]"] ;
1081 -> 1082 ;
1083 [label="gini = 0.0\nsamples = 3\nvalue = [3, 0]"] ;
1082 -> 1083 ;
1084 [label="gini = 0.0\nsamples = 1\nvalue = [0, 1]"] ;
1082 -> 1084 ;
1085 [label="gini = 0.0\nsamples = 3\nvalue = [0, 3]"] ;
1081 -> 1085 ;
1086 [label="gini = 0.0\nsamples = 10\nvalue = [0, 10]"] ;
1080 -> 1086 ;
1087 [label="X[12] <= -0.072\ngini = 0.494\nsamples = 824\nvalue = [368, 456]"] ;
685 -> 1087 ;
1088 [label="X[11] <= 0.167\ngini = 0.219\nsamples = 16\nvalue = [14, 2]"] ;
1087 -> 1088 ;
1089 [label="X[16] <= -0.046\ngini = 0.124\nsamples = 15\nvalue = [14, 1]"] ;
1088 -> 1089 ;
1090 [label="X[0] <= 0.025\ngini = 0.5\nsamples = 2\nvalue = [1, 1]"] ;
1089 -> 1090 ;
1091 [label="gini = 0.0\nsamples = 1\nvalue = [0, 1]"] ;
1090 -> 1091 ;
1092 [label="gini = 0.0\nsamples = 1\nvalue = [1, 0]"] ;
1090 -> 1092 ;
1093 [label="gini = 0.0\nsamples = 13\nvalue = [13, 0]"] ;
1089 -> 1093 ;
1094 [label="gini = 0.0\nsamples = 1\nvalue = [0, 1]"] ;
1088 -> 1094 ;
1095 [label="X[15] <= -0.007\ngini = 0.492\nsamples = 808\nvalue = [354, 454]"] ;
1087 -> 1095 ;
1096 [label="X[9] <= -0.016\ngini = 0.468\nsamples = 330\nvalue = [123, 207]"] ;
1095 -> 1096 ;
1097 [label="X[5] <= -0.082\ngini = 0.346\nsamples = 63\nvalue = [14, 49]"] ;
1096 -> 1097 ;
1098 [label="gini = 0.0\nsamples = 2\nvalue = [2, 0]"] ;
1097 -> 1098 ;
1099 [label="X[13] <= -0.066\ngini = 0.316\nsamples = 61\nvalue = [12, 49]"] ;
1097 -> 1099 ;
1100 [label="gini = 0.0\nsamples = 2\nvalue = [2, 0]"] ;
1099 -> 1100 ;
1101 [label="X[8] <= 0.053\ngini = 0.282\nsamples = 59\nvalue = [10, 49]"] ;
1099 -> 1101 ;
1102 [label="X[5] <= -0.029\ngini = 0.245\nsamples = 56\nvalue = [8, 48]"] ;
1101 -> 1102 ;
1103 [label="gini = 0.0\nsamples = 21\nvalue = [0, 21]"] ;
1102 -> 1103 ;
1104 [label="X[6] <= 0.037\ngini = 0.353\nsamples = 35\nvalue = [8, 27]"] ;
1102 -> 1104 ;
1105 [label="X[17] <= -0.082\ngini = 0.238\nsamples = 29\nvalue = [4, 25]"] ;
1104 -> 1105 ;
1106 [label="gini = 0.0\nsamples = 1\nvalue = [1, 0]"] ;
1105 -> 1106 ;
1107 [label="X[6] <= 0.024\ngini = 0.191\nsamples = 28\nvalue = [3, 25]"] ;
1105 -> 1107 ;
1108 [label="X[9] <= -0.021\ngini = 0.087\nsamples = 22\nvalue = [1, 21]"] ;
1107 -> 1108 ;
1109 [label="gini = 0.0\nsamples = 19\nvalue = [0, 19]"] ;
1108 -> 1109 ;
1110 [label="X[9] <= -0.018\ngini = 0.444\nsamples = 3\nvalue = [1, 2]"] ;
1108 -> 1110 ;
1111 [label="gini = 0.0\nsamples = 1\nvalue = [1, 0]"] ;
1110 -> 1111 ;
1112 [label="gini = 0.0\nsamples = 2\nvalue = [0, 2]"] ;
1110 -> 1112 ;
1113 [label="X[0] <= -0.006\ngini = 0.444\nsamples = 6\nvalue = [2, 4]"] ;
1107 -> 1113 ;
1114 [label="gini = 0.0\nsamples = 4\nvalue = [0, 4]"] ;
1113 -> 1114 ;
1115 [label="gini = 0.0\nsamples = 2\nvalue = [2, 0]"] ;
1113 -> 1115 ;
1116 [label="X[6] <= 0.061\ngini = 0.444\nsamples = 6\nvalue = [4, 2]"] ;
1104 -> 1116 ;
1117 [label="gini = 0.0\nsamples = 4\nvalue = [4, 0]"] ;
1116 -> 1117 ;
1118 [label="gini = 0.0\nsamples = 2\nvalue = [0, 2]"] ;
1116 -> 1118 ;
1119 [label="X[10] <= 0.035\ngini = 0.444\nsamples = 3\nvalue = [2, 1]"] ;
1101 -> 1119 ;
1120 [label="gini = 0.0\nsamples = 2\nvalue = [2, 0]"] ;
1119 -> 1120 ;
1121 [label="gini = 0.0\nsamples = 1\nvalue = [0, 1]"] ;
1119 -> 1121 ;
1122 [label="X[14] <= 0.035\ngini = 0.483\nsamples = 267\nvalue = [109, 158]"] ;
1096 -> 1122 ;
1123 [label="X[9] <= -0.012\ngini = 0.462\nsamples = 218\nvalue = [79, 139]"] ;
1122 -> 1123 ;
1124 [label="X[5] <= -0.015\ngini = 0.432\nsamples = 19\nvalue = [13, 6]"] ;
1123 -> 1124 ;
1125 [label="X[13] <= -0.028\ngini = 0.305\nsamples = 16\nvalue = [13, 3]"] ;
1124 -> 1125 ;
1126 [label="gini = 0.0\nsamples = 2\nvalue = [0, 2]"] ;
1125 -> 1126 ;
1127 [label="X[13] <= 0.049\ngini = 0.133\nsamples = 14\nvalue = [13, 1]"] ;
1125 -> 1127 ;
1128 [label="gini = 0.0\nsamples = 13\nvalue = [13, 0]"] ;
1127 -> 1128 ;
1129 [label="gini = 0.0\nsamples = 1\nvalue = [0, 1]"] ;
1127 -> 1129 ;
1130 [label="gini = 0.0\nsamples = 3\nvalue = [0, 3]"] ;
1124 -> 1130 ;
1131 [label="X[4] <= 0.013\ngini = 0.443\nsamples = 199\nvalue = [66, 133]"] ;
1123 -> 1131 ;
1132 [label="X[9] <= -0.009\ngini = 0.478\nsamples = 137\nvalue = [54, 83]"] ;
1131 -> 1132 ;
1133 [label="gini = 0.0\nsamples = 10\nvalue = [0, 10]"] ;
1132 -> 1133 ;
1134 [label="X[13] <= -0.018\ngini = 0.489\nsamples = 127\nvalue = [54, 73]"] ;
1132 -> 1134 ;
1135 [label="X[9] <= 0.005\ngini = 0.367\nsamples = 33\nvalue = [8, 25]"] ;
1134 -> 1135 ;
1136 [label="gini = 0.0\nsamples = 14\nvalue = [0, 14]"] ;
1135 -> 1136 ;
1137 [label="X[4] <= -0.007\ngini = 0.488\nsamples = 19\nvalue = [8, 11]"] ;
1135 -> 1137 ;
1138 [label="X[10] <= -0.062\ngini = 0.32\nsamples = 10\nvalue = [2, 8]"] ;
1137 -> 1138 ;
1139 [label="gini = 0.0\nsamples = 2\nvalue = [2, 0]"] ;
1138 -> 1139 ;
1140 [label="gini = 0.0\nsamples = 8\nvalue = [0, 8]"] ;
1138 -> 1140 ;
1141 [label="X[2] <= -0.002\ngini = 0.444\nsamples = 9\nvalue = [6, 3]"] ;
1137 -> 1141 ;
1142 [label="X[8] <= -0.021\ngini = 0.375\nsamples = 4\nvalue = [1, 3]"] ;
1141 -> 1142 ;
1143 [label="gini = 0.0\nsamples = 1\nvalue = [1, 0]"] ;
1142 -> 1143 ;
1144 [label="gini = 0.0\nsamples = 3\nvalue = [0, 3]"] ;
1142 -> 1144 ;
1145 [label="gini = 0.0\nsamples = 5\nvalue = [5, 0]"] ;
1141 -> 1145 ;
1146 [label="X[1] <= 0.04\ngini = 0.5\nsamples = 94\nvalue = [46, 48]"] ;
1134 -> 1146 ;
1147 [label="X[10] <= -0.029\ngini = 0.494\nsamples = 85\nvalue = [38, 47]"] ;
1146 -> 1147 ;
1148 [label="gini = 0.0\nsamples = 8\nvalue = [0, 8]"] ;
1147 -> 1148 ;
1149 [label="X[1] <= 0.024\ngini = 0.5\nsamples = 77\nvalue = [38, 39]"] ;
1147 -> 1149 ;
1150 [label="X[7] <= -0.011\ngini = 0.496\nsamples = 68\nvalue = [37, 31]"] ;
1149 -> 1150 ;
1151 [label="X[6] <= 0.003\ngini = 0.332\nsamples = 19\nvalue = [15, 4]"] ;
1150 -> 1151 ;
1152 [label="X[16] <= 0.012\ngini = 0.375\nsamples = 4\nvalue = [1, 3]"] ;
1151 -> 1152 ;
1153 [label="gini = 0.0\nsamples = 3\nvalue = [0, 3]"] ;
1152 -> 1153 ;
1154 [label="gini = 0.0\nsamples = 1\nvalue = [1, 0]"] ;
1152 -> 1154 ;
1155 [label="X[13] <= 0.047\ngini = 0.124\nsamples = 15\nvalue = [14, 1]"] ;
1151 -> 1155 ;
1156 [label="gini = 0.0\nsamples = 14\nvalue = [14, 0]"] ;
1155 -> 1156 ;
1157 [label="gini = 0.0\nsamples = 1\nvalue = [0, 1]"] ;
1155 -> 1157 ;
1158 [label="X[11] <= -0.018\ngini = 0.495\nsamples = 49\nvalue = [22, 27]"] ;
1150 -> 1158 ;
1159 [label="X[3] <= 0.046\ngini = 0.245\nsamples = 7\nvalue = [6, 1]"] ;
1158 -> 1159 ;
1160 [label="gini = 0.0\nsamples = 6\nvalue = [6, 0]"] ;
1159 -> 1160 ;
1161 [label="gini = 0.0\nsamples = 1\nvalue = [0, 1]"] ;
1159 -> 1161 ;
1162 [label="X[15] <= -0.03\ngini = 0.472\nsamples = 42\nvalue = [16, 26]"] ;
1158 -> 1162 ;
1163 [label="X[5] <= -0.014\ngini = 0.18\nsamples = 10\nvalue = [1, 9]"] ;
1162 -> 1163 ;
1164 [label="gini = 0.0\nsamples = 9\nvalue = [0, 9]"] ;
1163 -> 1164 ;
1165 [label="gini = 0.0\nsamples = 1\nvalue = [1, 0]"] ;
1163 -> 1165 ;
1166 [label="X[14] <= 0.01\ngini = 0.498\nsamples = 32\nvalue = [15, 17]"] ;
1162 -> 1166 ;
1167 [label="X[8] <= 0.107\ngini = 0.219\nsamples = 8\nvalue = [7, 1]"] ;
1166 -> 1167 ;
1168 [label="gini = 0.0\nsamples = 7\nvalue = [7, 0]"] ;
1167 -> 1168 ;
1169 [label="gini = 0.0\nsamples = 1\nvalue = [0, 1]"] ;
1167 -> 1169 ;
1170 [label="X[7] <= 0.001\ngini = 0.444\nsamples = 24\nvalue = [8, 16]"] ;
1166 -> 1170 ;
1171 [label="X[14] <= 0.012\ngini = 0.444\nsamples = 9\nvalue = [6, 3]"] ;
1170 -> 1171 ;
1172 [label="gini = 0.0\nsamples = 3\nvalue = [0, 3]"] ;
1171 -> 1172 ;
1173 [label="gini = 0.0\nsamples = 6\nvalue = [6, 0]"] ;
1171 -> 1173 ;
1174 [label="X[6] <= 0.048\ngini = 0.231\nsamples = 15\nvalue = [2, 13]"] ;
1170 -> 1174 ;
1175 [label="gini = 0.0\nsamples = 13\nvalue = [0, 13]"] ;
1174 -> 1175 ;
1176 [label="gini = 0.0\nsamples = 2\nvalue = [2, 0]"] ;
1174 -> 1176 ;
1177 [label="X[17] <= 0.002\ngini = 0.198\nsamples = 9\nvalue = [1, 8]"] ;
1149 -> 1177 ;
1178 [label="gini = 0.0\nsamples = 8\nvalue = [0, 8]"] ;
1177 -> 1178 ;
1179 [label="gini = 0.0\nsamples = 1\nvalue = [1, 0]"] ;
1177 -> 1179 ;
1180 [label="X[3] <= -0.043\ngini = 0.198\nsamples = 9\nvalue = [8, 1]"] ;
1146 -> 1180 ;
1181 [label="gini = 0.0\nsamples = 1\nvalue = [0, 1]"] ;
1180 -> 1181 ;
1182 [label="gini = 0.0\nsamples = 8\nvalue = [8, 0]"] ;
1180 -> 1182 ;
1183 [label="X[11] <= -0.071\ngini = 0.312\nsamples = 62\nvalue = [12, 50]"] ;
1131 -> 1183 ;
1184 [label="gini = 0.0\nsamples = 2\nvalue = [2, 0]"] ;
1183 -> 1184 ;
1185 [label="X[17] <= -0.072\ngini = 0.278\nsamples = 60\nvalue = [10, 50]"] ;
1183 -> 1185 ;
1186 [label="gini = 0.0\nsamples = 2\nvalue = [2, 0]"] ;
1185 -> 1186 ;
1187 [label="X[6] <= 0.023\ngini = 0.238\nsamples = 58\nvalue = [8, 50]"] ;
1185 -> 1187 ;
1188 [label="X[15] <= -0.008\ngini = 0.124\nsamples = 45\nvalue = [3, 42]"] ;
1187 -> 1188 ;
1189 [label="X[10] <= 0.051\ngini = 0.087\nsamples = 44\nvalue = [2, 42]"] ;
1188 -> 1189 ;
1190 [label="X[12] <= 0.047\ngini = 0.046\nsamples = 42\nvalue = [1, 41]"] ;
1189 -> 1190 ;
1191 [label="gini = 0.0\nsamples = 39\nvalue = [0, 39]"] ;
1190 -> 1191 ;
1192 [label="X[8] <= -0.014\ngini = 0.444\nsamples = 3\nvalue = [1, 2]"] ;
1190 -> 1192 ;
1193 [label="gini = 0.0\nsamples = 2\nvalue = [0, 2]"] ;
1192 -> 1193 ;
1194 [label="gini = 0.0\nsamples = 1\nvalue = [1, 0]"] ;
1192 -> 1194 ;
1195 [label="X[3] <= -0.043\ngini = 0.5\nsamples = 2\nvalue = [1, 1]"] ;
1189 -> 1195 ;
1196 [label="gini = 0.0\nsamples = 1\nvalue = [0, 1]"] ;
1195 -> 1196 ;
1197 [label="gini = 0.0\nsamples = 1\nvalue = [1, 0]"] ;
1195 -> 1197 ;
1198 [label="gini = 0.0\nsamples = 1\nvalue = [1, 0]"] ;
1188 -> 1198 ;
1199 [label="X[1] <= -0.021\ngini = 0.473\nsamples = 13\nvalue = [5, 8]"] ;
1187 -> 1199 ;
1200 [label="gini = 0.0\nsamples = 6\nvalue = [0, 6]"] ;
1199 -> 1200 ;
1201 [label="X[2] <= 0.005\ngini = 0.408\nsamples = 7\nvalue = [5, 2]"] ;
1199 -> 1201 ;
1202 [label="gini = 0.0\nsamples = 4\nvalue = [4, 0]"] ;
1201 -> 1202 ;
1203 [label="X[7] <= -0.02\ngini = 0.444\nsamples = 3\nvalue = [1, 2]"] ;
1201 -> 1203 ;
1204 [label="gini = 0.0\nsamples = 1\nvalue = [1, 0]"] ;
1203 -> 1204 ;
1205 [label="gini = 0.0\nsamples = 2\nvalue = [0, 2]"] ;
1203 -> 1205 ;
1206 [label="X[16] <= 0.033\ngini = 0.475\nsamples = 49\nvalue = [30, 19]"] ;
1122 -> 1206 ;
1207 [label="X[1] <= -0.033\ngini = 0.42\nsamples = 40\nvalue = [28, 12]"] ;
1206 -> 1207 ;
1208 [label="gini = 0.0\nsamples = 3\nvalue = [0, 3]"] ;
1207 -> 1208 ;
1209 [label="X[0] <= 0.022\ngini = 0.368\nsamples = 37\nvalue = [28, 9]"] ;
1207 -> 1209 ;
1210 [label="X[12] <= 0.064\ngini = 0.245\nsamples = 28\nvalue = [24, 4]"] ;
1209 -> 1210 ;
1211 [label="X[16] <= 0.025\ngini = 0.147\nsamples = 25\nvalue = [23, 2]"] ;
1210 -> 1211 ;
1212 [label="X[17] <= -0.043\ngini = 0.08\nsamples = 24\nvalue = [23, 1]"] ;
1211 -> 1212 ;
1213 [label="X[7] <= 0.011\ngini = 0.444\nsamples = 3\nvalue = [2, 1]"] ;
1212 -> 1213 ;
1214 [label="gini = 0.0\nsamples = 1\nvalue = [0, 1]"] ;
1213 -> 1214 ;
1215 [label="gini = 0.0\nsamples = 2\nvalue = [2, 0]"] ;
1213 -> 1215 ;
1216 [label="gini = 0.0\nsamples = 21\nvalue = [21, 0]"] ;
1212 -> 1216 ;
1217 [label="gini = 0.0\nsamples = 1\nvalue = [0, 1]"] ;
1211 -> 1217 ;
1218 [label="X[17] <= -0.004\ngini = 0.444\nsamples = 3\nvalue = [1, 2]"] ;
1210 -> 1218 ;
1219 [label="gini = 0.0\nsamples = 2\nvalue = [0, 2]"] ;
1218 -> 1219 ;
1220 [label="gini = 0.0\nsamples = 1\nvalue = [1, 0]"] ;
1218 -> 1220 ;
1221 [label="X[10] <= 0.021\ngini = 0.494\nsamples = 9\nvalue = [4, 5]"] ;
1209 -> 1221 ;
1222 [label="X[2] <= -0.018\ngini = 0.444\nsamples = 6\nvalue = [4, 2]"] ;
1221 -> 1222 ;
1223 [label="gini = 0.0\nsamples = 3\nvalue = [3, 0]"] ;
1222 -> 1223 ;
1224 [label="X[7] <= 0.007\ngini = 0.444\nsamples = 3\nvalue = [1, 2]"] ;
1222 -> 1224 ;
1225 [label="gini = 0.0\nsamples = 2\nvalue = [0, 2]"] ;
1224 -> 1225 ;
1226 [label="gini = 0.0\nsamples = 1\nvalue = [1, 0]"] ;
1224 -> 1226 ;
1227 [label="gini = 0.0\nsamples = 3\nvalue = [0, 3]"] ;
1221 -> 1227 ;
1228 [label="X[11] <= -0.041\ngini = 0.346\nsamples = 9\nvalue = [2, 7]"] ;
1206 -> 1228 ;
1229 [label="gini = 0.0\nsamples = 2\nvalue = [2, 0]"] ;
1228 -> 1229 ;
1230 [label="gini = 0.0\nsamples = 7\nvalue = [0, 7]"] ;
1228 -> 1230 ;
1231 [label="X[1] <= 0.003\ngini = 0.499\nsamples = 478\nvalue = [231, 247]"] ;
1095 -> 1231 ;
1232 [label="X[13] <= 0.026\ngini = 0.489\nsamples = 258\nvalue = [110, 148]"] ;
1231 -> 1232 ;
1233 [label="X[6] <= 0.062\ngini = 0.496\nsamples = 225\nvalue = [102, 123]"] ;
1232 -> 1233 ;
1234 [label="X[2] <= -0.07\ngini = 0.498\nsamples = 219\nvalue = [102, 117]"] ;
1233 -> 1234 ;
1235 [label="gini = 0.0\nsamples = 5\nvalue = [0, 5]"] ;
1234 -> 1235 ;
1236 [label="X[9] <= 0.001\ngini = 0.499\nsamples = 214\nvalue = [102, 112]"] ;
1234 -> 1236 ;
1237 [label="X[0] <= 0.026\ngini = 0.482\nsamples = 116\nvalue = [47, 69]"] ;
1236 -> 1237 ;
1238 [label="X[10] <= 0.038\ngini = 0.46\nsamples = 103\nvalue = [37, 66]"] ;
1237 -> 1238 ;
1239 [label="X[10] <= 0.004\ngini = 0.437\nsamples = 93\nvalue = [30, 63]"] ;
1238 -> 1239 ;
1240 [label="X[5] <= -0.032\ngini = 0.478\nsamples = 66\nvalue = [26, 40]"] ;
1239 -> 1240 ;
1241 [label="X[16] <= 0.066\ngini = 0.287\nsamples = 23\nvalue = [4, 19]"] ;
1240 -> 1241 ;
1242 [label="X[2] <= 0.079\ngini = 0.172\nsamples = 21\nvalue = [2, 19]"] ;
1241 -> 1242 ;
1243 [label="X[8] <= 0.042\ngini = 0.095\nsamples = 20\nvalue = [1, 19]"] ;
1242 -> 1243 ;
1244 [label="gini = 0.0\nsamples = 18\nvalue = [0, 18]"] ;
1243 -> 1244 ;
1245 [label="X[1] <= -0.001\ngini = 0.5\nsamples = 2\nvalue = [1, 1]"] ;
1243 -> 1245 ;
1246 [label="gini = 0.0\nsamples = 1\nvalue = [1, 0]"] ;
1245 -> 1246 ;
1247 [label="gini = 0.0\nsamples = 1\nvalue = [0, 1]"] ;
1245 -> 1247 ;
1248 [label="gini = 0.0\nsamples = 1\nvalue = [1, 0]"] ;
1242 -> 1248 ;
1249 [label="gini = 0.0\nsamples = 2\nvalue = [2, 0]"] ;
1241 -> 1249 ;
1250 [label="X[15] <= 0.007\ngini = 0.5\nsamples = 43\nvalue = [22, 21]"] ;
1240 -> 1250 ;
1251 [label="X[7] <= 0.015\ngini = 0.36\nsamples = 17\nvalue = [13, 4]"] ;
1250 -> 1251 ;
1252 [label="gini = 0.0\nsamples = 10\nvalue = [10, 0]"] ;
1251 -> 1252 ;
1253 [label="X[4] <= -0.004\ngini = 0.49\nsamples = 7\nvalue = [3, 4]"] ;
1251 -> 1253 ;
1254 [label="gini = 0.0\nsamples = 3\nvalue = [0, 3]"] ;
1253 -> 1254 ;
1255 [label="X[6] <= 0.031\ngini = 0.375\nsamples = 4\nvalue = [3, 1]"] ;
1253 -> 1255 ;
